#include <math.h>
#include <string.h>
// #include "final.h"
#define K2C_MAX_NDIM 5

size_t i, j, k;

// functions_include
// k2c_softmax_func is inlined

// k2c_relu_func is inlined

// k2c_bias_add is inlined

// 21632 and 774,
// 784 and 5408,
// 288 and 18432,
// 32, 64
// stride and dilation = 2

void k2c_conv2d(size_t *output_ndim, size_t *output_numel, size_t *output_shape, float *output_array,
                size_t *input_ndim, size_t *input_numel, size_t *input_shape, float *input_array,
                size_t *kernel_ndim, size_t *kernel_numel, size_t *kernel_shape, float *kernel_array,
                size_t *bias_ndim, size_t *bias_numel, size_t *bias_shape, float *bias_array, size_t *stride, size_t *dilation)
{

    // My Optimization

    size_t output_numel_ = *output_numel;
    size_t bias_numel_ = *bias_numel;

#pragma HLS array_partition variable = output_array cyclic factor = 256

    // for (i = 0; i < *output_numel; i++)
    for (i = 0; i < 21632; i++)
    {
#pragma HLS unroll factor = 256 // tried 512 but latency increased
        if (i < output_numel_)
        {
            output_array[i] = 0;
        }
    }

    const size_t out_rows = output_shape[0]; // code motion
    const size_t out_cols = output_shape[1];
    const size_t out_channels = output_shape[2];
    const size_t in_channels = input_shape[2];
    const size_t kernel_shape1 = 3; // kernel_shape[1] = 3
    const size_t kernel_shape2 = kernel_shape[2];
    const size_t kernel_shape3 = kernel_shape[3];
    const size_t kernel_shape0 = 3; // kernel_shape[0] = 3
    const size_t stride0 = stride[0];
    const size_t stride1 = stride[1];
    const size_t input_shape2 = input_shape[2];
    const size_t input_shape1 = input_shape[1];
    const size_t dilation0 = dilation[0];
    const size_t dilation1 = dilation[1];

    const size_t outChannelsOutCols = out_channels * out_cols; // code motion
    const size_t kernelShape32 = kernel_shape3 * kernel_shape2;
    const size_t kernelShape321 = kernelShape32 * kernel_shape1;
    const size_t inputShape21 = input_shape2 * input_shape1;

    for (size_t x0 = 0; x0 < 26; ++x0) // 26 and 11
    {
        if (x0 < out_rows)
        {
            for (size_t x1 = 0; x1 < 26; ++x1) // 26 and 11
            {
                if (x1 < out_cols)
                {
                    for (size_t z0 = 0; z0 < 3; ++z0)
                    {
                        for (size_t z1 = 0; z1 < 3; ++z1)
                        {
                            // #pragma HLS PIPELINE II=1
                            for (size_t q = 0; q < 32; ++q) // 1 and 32
                            {
                                if (q < in_channels)
                                {
                                    for (size_t k = 0; k < 64; ++k) // 32 and 64
                                    {
                                        if (k < out_channels)
                                        {
#pragma HLS PIPELINE II = 8
                                            output_array[x0 * (outChannelsOutCols) + x1 * (out_channels) + k] +=
                                                kernel_array[z0 * (kernelShape321) + z1 * (kernelShape32) + q * (kernel_shape3) + k] *
                                                input_array[(x0 * stride0 + dilation0 * z0) * (inputShape21) + (x1 * stride1 + dilation1 * z1) * (input_shape2) + q];
                                        }
                                    }
                                }
                            }
                        }
                    }
                }
            }
        }
    }

    // k2c_bias_add(output_array, bias_array,output_numel_,bias_numel_);

    // INLINING k2c_bias_add
    for (j = 0; j < 10; ++j)
    {
#pragma HLS UNROLL
        output_array[j] += bias_array[0];
    }

    // k2c_relu_func(output_array, output_numel_);

    // INLINING k2c_relu_func
    for (i = 0; i < 21632; ++i) // 21632 from conv2d
    {
#pragma HLS UNROLL factor = 256 // 512 tooked lot of time
        if (i < output_numel_)
        {
            if (output_array[i] <= 0.0f)
            {
                output_array[i] = 0.0f;
            }
        }
    }

}

// from k2c_pooling_layers.c

// o_numel = 5408, 1600
// i_numel = 21632, 7744

// void k2c_maxpool2d(float *output_array, size_t *output_ndim, size_t *output_numel, size_t *output_shape,
//                    float *input_array, size_t *input_ndim, size_t *input_numel, size_t *input_shape, const size_t *pool_size, size_t *stride)

void k2c_maxpool2d(float *output_array, size_t *output_numel, size_t *output_shape,
                   float *input_array, size_t *input_shape, const size_t *pool_size, size_t *stride)
{

    const size_t channels = input_shape[2];       // 32 and 11
    const size_t output_shape1 = output_shape[1]; // 13, 5
    const size_t prodChanOuput = channels * output_shape1;
    const size_t stride0 = stride[0];
    const size_t stride1 = stride[1];
    const size_t input_shape1 = input_shape[1]; // 26 and 11
    size_t output_numel_ = *output_numel;
    size_t pool_size1 = pool_size[1]; // 2

    for (i = 0; i < 32; ++i)
    {
        if (i < channels)
        {
            // for (j = 0, k = 0; j < output_shape[1] * channels;
            //      j += channels, k += channels * stride[1])
            for (j = 0, k = 0; j < 416; j += channels, k += channels * stride1)
            {
                if (j < prodChanOuput)
                {
                    for (size_t l = 0, m = 0; l < 5408; l += channels * output_shape1, m += channels * input_shape1 * stride0)
                    {
                        if (l < output_numel_)
                        {
                            output_array[l + j + i] = input_array[m + k + i];
#pragma HLS pipeline II = 1 // check this
                            // for (size_t n = 0; n < pool_size[1] * channels; n += channels)
                            // 2  * 32
                            for (size_t n = 0; n < 64; n += channels)
                            {
                                if (n < 2 * channels)
                                {
                                    // for (size_t p = 0; p < pool_size[0] * channels * input_shape[1];
                                    //     p += channels * input_shape[1])

                                    // pool_size[0] = 2
                                    // 2*32*26
                                    for (size_t p = 0; p < 1664; p += channels * input_shape1)
                                    {
#pragma HLS PIPELINE II = 5
                                        if (p < 2 * channels * input_shape1)
                                        {
                                            if (output_array[l + j + i] < input_array[m + k + i + n + p])
                                            {
                                                output_array[l + j + i] = input_array[m + k + i + n + p];
                                            }
                                        }
                                    }
                                }
                            }
                        }
                    }
                }
            }
        }
    }
}


// k2c_flatten is inlined

// k2c_affine_matmul is inlined

// k2c_dot is NOT USED FOR THIS MODEL

// 10
// 1600
// 16000
// 10
void k2c_dense(float *output_array, const float *input_array,
               const float *kernel_array, const float *bias_array)
{
    size_t outrows = 1;
    // }

    // k2c_affine_matmul(output_array, input_array, kernel_array, bias_array,
    //                   outrows, outcols, innerdim);

    // Making latency more
    // #pragma HLS ARRAY_PARTITION variable=output_array complete
    // #pragma HLS ARRAY_PARTITION variable = kernel_array block factor=10
    // #pragma HLS ARRAY_PARTITION variable = input_array cyclic factor=10

    // INLINING affine_matmul
    for (i = 0; i < 10; i++)
    {
#pragma HLS UNROLL
        output_array[i] = 0;
    }

    // Optimizing this
    // const size_t outrowidx = 0;
    // const size_t inneridx = 0;

    size_t idx;
    for (i = 0; i < 10; i++)
    {
        float val = output_array[i];
        for (j = 0; j < 1600; j++)
        {
            idx = j * 10 + i;
            val = val + input_array[j] * kernel_array[idx];
        }
        output_array[i] = val;
    }

    // INLINING affine_matmul

    // k2c_softmax_func(output_array, outsize);

    // INLINING softmax_func
    float xmax = output_array[0];
    float sum = 0;
    for (i = 0; i < 10; ++i)
    {
#pragma HLS UNROLL
        if (output_array[i] > xmax)
        {
            xmax = output_array[i];
        }
    }

    for (i = 0; i < 10; ++i)
    {
#pragma HLS UNROLL
        output_array[i] = expf(output_array[i] - xmax);
        sum += output_array[i];
    }

    //    for ( i=0; i < size; ++i) {
    //        sum += x[i];
    //    }

    sum = 1.0f / sum;
    for (i = 0; i < 10; ++i)
    {
#pragma HLS UNROLL
        output_array[i] = output_array[i] * sum;
    }

    // INLINING softmax_func
}

// functions_include

// k2chere
//  k2c_tensor dense_bias;
//  k2c_tensor dense_kernel;
//  k2c_tensor flatten_output;
//  k2c_tensor max_pooling2d_1_output;
//  k2c_tensor conv2d_1_bias;
//  k2c_tensor conv2d_1_kernel;
//  k2c_tensor conv2d_1_output;
//  k2c_tensor max_pooling2d_output;
//  k2c_tensor conv2d_bias;
//  k2c_tensor conv2d_kernel;
// k2chere

size_t conv2d_output_ndim = 3;
size_t conv2d_output_numel = 21632;
size_t conv2d_output_shape[5] = {26, 26, 32, 1, 1};

size_t conv2d_kernel_ndim = 4;
size_t conv2d_kernel_numel = 288;
size_t conv2d_kernel_shape[5] = {3, 3, 1, 32, 1};

size_t conv2d_bias_ndim = 1;
size_t conv2d_bias_numel = 32;
size_t conv2d_bias_shape[5] = {32, 1, 1, 1, 1};

size_t max_pooling2d_output_ndim = 3;
size_t max_pooling2d_output_numel = 5408;
size_t max_pooling2d_output_shape[5] = {13, 13, 32, 1, 1};

size_t conv2d_1_output_ndim = 3;
size_t conv2d_1_output_numel = 7744;
size_t conv2d_1_output_shape[5] = {11, 11, 64, 1, 1};

size_t conv2d_1_kernel_ndim = 4;
size_t conv2d_1_kernel_numel = 18432;
size_t conv2d_1_kernel_shape[5] = {3, 3, 32, 64, 1};

size_t conv2d_1_bias_ndim = 1;
size_t conv2d_1_bias_numel = 64;
size_t conv2d_1_bias_shape[5] = {64, 1, 1, 1, 1};

size_t max_pooling2d_1_output_ndim = 3;
size_t max_pooling2d_1_output_numel = 1600;
size_t max_pooling2d_1_output_shape[5] = {5, 5, 64, 1, 1};

size_t flatten_output_ndim = 1;
size_t flatten_output_numel = 1600;
size_t flatten_output_shape[5] = {1600, 1, 1, 1, 1};

size_t dense_kernel_ndim = 2;
size_t dense_kernel_numel = 16000;
size_t dense_kernel_shape[5] = {1600, 10, 1, 1, 1};

size_t dense_bias_ndim = 1;
size_t dense_bias_numel = 10;
size_t dense_bias_shape[5] = {10, 1, 1, 1, 1};

size_t conv2d_stride[2] = {1, 1};
size_t conv2d_dilation[2] = {1, 1};
float conv2d_output_array[21632] = {0};

float conv2d_kernel_array[288] = {
    +1.27664745e-01f,
    +1.20108202e-01f,
    -1.49442526e-02f,
    +1.33126050e-01f,
    +2.88505226e-01f,
    -2.31262632e-02f,
    +2.15895072e-01f,
    -2.88693577e-01f,
    +1.23873306e-02f,
    -1.87027812e-01f,
    -1.43369794e-01f,
    -8.31471533e-02f,
    +3.56690846e-02f,
    +1.25617832e-01f,
    -3.61340344e-01f,
    +1.50649577e-01f,
    +2.11200103e-01f,
    -2.89662510e-01f,
    +1.70824468e-01f,
    +1.36296794e-01f,
    +9.56154689e-02f,
    +8.74821842e-02f,
    -8.21098611e-02f,
    +1.32659346e-01f,
    +2.81421430e-02f,
    +5.20710573e-02f,
    +3.53529602e-02f,
    +9.74005684e-02f,
    +8.30882171e-04f,
    -3.26724321e-01f,
    -7.66225830e-02f,
    +1.05810426e-01f,
    -1.96627602e-01f,
    +1.71675682e-01f,
    -7.51371905e-02f,
    -5.65571934e-02f,
    +1.74412996e-01f,
    +2.24714756e-01f,
    +2.64040619e-01f,
    -2.66123742e-01f,
    +2.07662061e-01f,
    -1.21740609e-01f,
    -1.61496773e-02f,
    +1.10028945e-01f,
    -1.24390736e-01f,
    +1.04909325e-02f,
    -3.19036730e-02f,
    +2.07431689e-01f,
    +1.03903584e-01f,
    -2.92742461e-01f,
    +2.60248572e-01f,
    +1.41878739e-01f,
    +1.45830125e-01f,
    -1.12260900e-01f,
    -3.24345529e-01f,
    +1.23363182e-01f,
    +1.48200303e-01f,
    -3.70133319e-03f,
    +1.71207115e-01f,
    +1.78080440e-01f,
    +1.77275047e-01f,
    -3.32912534e-01f,
    +1.48813665e-01f,
    +1.77823216e-01f,
    -3.05965632e-01f,
    +3.50286156e-01f,
    +1.82902738e-01f,
    -9.22872871e-03f,
    -1.39285788e-01f,
    +2.14600563e-01f,
    +1.68226093e-01f,
    +5.61344773e-02f,
    -1.87334135e-01f,
    +1.77514941e-01f,
    +3.63837667e-02f,
    +4.16550487e-02f,
    -1.33129343e-01f,
    +2.16863438e-01f,
    -2.19532680e-02f,
    -2.16423690e-01f,
    +1.78645834e-01f,
    -1.59673080e-01f,
    -9.83274281e-02f,
    -1.37957364e-01f,
    -1.64291158e-01f,
    -3.41132969e-01f,
    -9.96375680e-02f,
    +1.69201106e-01f,
    +1.78520277e-01f,
    -1.71759382e-01f,
    -5.36724590e-02f,
    +1.22679517e-01f,
    +6.80098012e-02f,
    -1.34205759e-01f,
    +1.02228103e-02f,
    +2.07787901e-02f,
    +6.68668896e-02f,
    +3.76329781e-03f,
    -4.29361127e-02f,
    +8.57015550e-02f,
    +2.33918339e-01f,
    -8.20690617e-02f,
    +5.22298664e-02f,
    -1.26869187e-01f,
    +5.40609397e-02f,
    +1.69503450e-01f,
    -6.53283000e-02f,
    +5.39054982e-02f,
    +1.33639589e-01f,
    +1.09901451e-01f,
    -1.14165872e-01f,
    +2.36331671e-01f,
    -4.26201820e-02f,
    +2.18908191e-01f,
    +2.29681745e-01f,
    +6.51160255e-02f,
    -1.28311813e-01f,
    +1.59332544e-01f,
    -2.18864173e-01f,
    +1.87569126e-01f,
    -9.66768041e-02f,
    +2.02963352e-01f,
    +1.60548344e-01f,
    +1.92994565e-01f,
    +1.64441884e-01f,
    +1.13638528e-01f,
    +1.35414273e-01f,
    -1.93414927e-01f,
    +1.44813776e-01f,
    -1.93166472e-02f,
    -8.02149903e-03f,
    +2.06560552e-01f,
    -1.14392959e-01f,
    -2.55812347e-01f,
    +1.10850651e-02f,
    +1.50631145e-02f,
    +5.21461554e-02f,
    +2.01217100e-01f,
    +1.53622672e-01f,
    +1.63029864e-01f,
    +1.81331754e-01f,
    +1.34474009e-01f,
    +1.14216700e-01f,
    -1.27141491e-01f,
    +5.93058653e-02f,
    -3.04262415e-02f,
    -2.83904579e-02f,
    +1.86177060e-01f,
    +8.70062187e-02f,
    +2.29902714e-01f,
    -1.68167323e-01f,
    +4.19004913e-03f,
    -6.85395077e-02f,
    +1.78049892e-01f,
    -4.02380433e-03f,
    +2.27426346e-02f,
    +1.03769526e-01f,
    +1.78620964e-01f,
    +1.93059191e-01f,
    +1.20284230e-01f,
    +3.84073667e-02f,
    +2.09946409e-02f,
    +2.66050100e-02f,
    +3.17956954e-02f,
    -2.83865154e-01f,
    -1.11949183e-01f,
    +1.51073756e-02f,
    +2.30635151e-01f,
    +2.14692857e-02f,
    +2.26999730e-01f,
    +1.75994426e-01f,
    +1.84911713e-01f,
    +9.51752663e-02f,
    +6.35629222e-02f,
    +2.01466084e-01f,
    -2.84427971e-01f,
    +2.17903450e-01f,
    -2.74570019e-04f,
    -3.41941565e-01f,
    -3.10878336e-01f,
    +1.93857625e-01f,
    +1.02671301e-02f,
    +1.67172402e-01f,
    -2.09626202e-02f,
    +1.79817766e-01f,
    +9.74703729e-02f,
    -1.83736593e-01f,
    +5.21975793e-02f,
    +1.37828767e-01f,
    +1.49550423e-01f,
    +5.05785039e-03f,
    +1.13955587e-01f,
    +9.61451977e-02f,
    -3.24015409e-01f,
    +1.08090840e-01f,
    +9.32238474e-02f,
    +1.40828773e-01f,
    +1.59554750e-01f,
    -2.22487584e-01f,
    +2.12632373e-01f,
    -2.13267788e-01f,
    -1.31855324e-01f,
    +2.25268155e-01f,
    -1.08592533e-01f,
    +1.78318024e-01f,
    -3.22478563e-01f,
    +1.12292036e-01f,
    -2.12812483e-01f,
    -3.76886189e-01f,
    +2.16714099e-01f,
    +1.39981732e-01f,
    +1.18105009e-01f,
    +3.37509834e-03f,
    -6.66614100e-02f,
    -2.53072172e-01f,
    +1.21886164e-01f,
    -1.84103459e-01f,
    -4.21572104e-02f,
    +1.80465817e-01f,
    -1.32184818e-01f,
    +1.59154207e-01f,
    +2.06960216e-01f,
    -6.46341965e-02f,
    -3.73105109e-01f,
    +8.94591883e-02f,
    -3.22067678e-01f,
    +1.60523653e-01f,
    +2.28292227e-01f,
    -2.50123203e-01f,
    +2.27394328e-02f,
    -2.97087342e-01f,
    +1.22919127e-01f,
    +1.71551153e-01f,
    -1.20372742e-01f,
    +1.86371937e-01f,
    +1.39786378e-01f,
    +9.44406819e-03f,
    -2.32824787e-01f,
    -2.27261847e-03f,
    -3.53696704e-01f,
    -2.78903991e-01f,
    +1.68111771e-01f,
    +1.21727914e-01f,
    +1.82470903e-01f,
    -2.67372169e-02f,
    +1.45301029e-01f,
    +5.08585479e-03f,
    +1.34962887e-01f,
    +1.53893560e-01f,
    +1.99230269e-01f,
    +6.40172437e-02f,
    +4.36803065e-02f,
    +2.40541133e-03f,
    +1.26763999e-01f,
    -9.55387801e-02f,
    -4.26642485e-02f,
    +1.37754545e-01f,
    -2.42697015e-01f,
    +1.98694080e-01f,
    -9.17758048e-02f,
    -1.17611930e-01f,
    -2.02078283e-01f,
    -3.09439957e-01f,
    +1.54289529e-01f,
    +1.84710428e-01f,
    +7.50239715e-02f,
    +2.05607712e-01f,
    +1.07025377e-01f,
    +1.59214959e-01f,
    +1.31238192e-01f,
    +2.25320294e-01f,
    -1.54464543e-01f,
    +1.11477859e-01f,
    +9.80602354e-02f,
    -3.06816280e-01f,
    -2.75694638e-01f,
    +1.87943056e-01f,
    +6.25501648e-02f,
    +2.23471597e-01f,
    +5.09388484e-02f,
    +9.65542197e-02f,
    +7.25941136e-02f,
    +3.49686220e-02f,
    +3.45478915e-02f,
    +2.00003907e-02f,
    +2.72440184e-02f,
    +1.71583593e-01f,
    +2.31726170e-01f,
};

float conv2d_bias_array[32] = {
    -1.62169114e-02f,
    +9.27321315e-02f,
    -1.66038591e-02f,
    -3.60115850e-03f,
    +4.39940803e-02f,
    +4.97441962e-02f,
    +7.07964152e-02f,
    -7.94435479e-03f,
    -2.68658400e-02f,
    -6.94847992e-03f,
    -9.70786379e-04f,
    -9.10419505e-03f,
    -9.49926861e-03f,
    -5.45349624e-03f,
    +8.42978538e-04f,
    +1.33915812e-01f,
    -4.68571112e-03f,
    +5.06073609e-02f,
    +1.50611054e-03f,
    -1.39817968e-03f,
    -2.27946397e-02f,
    -1.19770900e-03f,
    +1.45369887e-01f,
    -6.11092476e-03f,
    -1.98582672e-02f,
    -4.57377685e-03f,
    -3.31514291e-02f,
    -1.40716992e-02f,
    -1.54157355e-02f,
    -6.10609830e-04f,
    -1.59794409e-02f,
    -2.90426221e-02f,
};

size_t max_pooling2d_stride[2] = {2, 2};
size_t max_pooling2d_pool_size[2] = {2, 2};
float max_pooling2d_output_array[5408] = {0};

size_t conv2d_1_stride[2] = {1, 1};
size_t conv2d_1_dilation[2] = {1, 1};
float conv2d_1_output_array[7744] = {0};

float conv2d_1_kernel_array[18432] = {
    +5.64896576e-02f,
    +2.32418664e-02f,
    +9.58303139e-02f,
    +8.79454911e-02f,
    -4.66289110e-02f,
    -5.45058399e-02f,
    -6.15650415e-02f,
    -4.59358394e-02f,
    -1.10062458e-01f,
    +1.62840933e-01f,
    +3.04576643e-02f,
    +5.09699360e-02f,
    -1.03950784e-01f,
    +8.21414217e-03f,
    +5.39083965e-02f,
    +6.10025339e-02f,
    -1.03235207e-02f,
    +2.50513125e-02f,
    -4.56572622e-02f,
    -1.10978857e-01f,
    +2.06167549e-02f,
    +3.09250280e-02f,
    -1.85656205e-01f,
    +9.81333777e-02f,
    +4.38422337e-02f,
    -4.85362709e-02f,
    -1.06447704e-01f,
    +9.24203247e-02f,
    +8.29144195e-02f,
    +5.36130508e-03f,
    -1.42857224e-01f,
    +3.62173989e-02f,
    +2.69542146e-03f,
    +6.36011809e-02f,
    -1.05306454e-01f,
    +1.52121643e-02f,
    +1.72848310e-02f,
    -5.45959398e-02f,
    +2.71409918e-02f,
    -1.75449289e-02f,
    +1.16047502e-01f,
    +2.10518539e-02f,
    -9.81727839e-02f,
    -2.60535963e-02f,
    +1.15005128e-01f,
    -4.19345200e-02f,
    +1.52969006e-02f,
    -3.22424411e-03f,
    -2.95371208e-02f,
    -9.23584551e-02f,
    +6.45326003e-02f,
    +3.03712045e-03f,
    -8.48323554e-02f,
    -1.74663868e-02f,
    +1.57660972e-02f,
    -9.39851180e-02f,
    +9.38032940e-02f,
    -2.05565430e-02f,
    +1.14148319e-01f,
    +1.49177816e-02f,
    -1.14097401e-01f,
    +6.15865141e-02f,
    -4.86657210e-02f,
    -2.91637070e-02f,
    -1.34677678e-01f,
    -3.32460731e-01f,
    -1.31959364e-01f,
    -8.42062980e-02f,
    -2.04691544e-01f,
    -6.63710237e-02f,
    +1.11956326e-02f,
    -1.55598158e-02f,
    -9.98390242e-02f,
    +1.44633204e-01f,
    -1.43553674e-01f,
    +6.08888315e-03f,
    -1.04363419e-01f,
    -1.37348622e-01f,
    -3.67792277e-03f,
    -8.42340961e-02f,
    -1.52030319e-01f,
    +9.99667868e-02f,
    -2.17247814e-01f,
    -2.83262634e-04f,
    +9.87114012e-03f,
    -9.90948081e-02f,
    -6.16337284e-02f,
    -1.47837948e-03f,
    -2.73066938e-01f,
    -6.88722217e-03f,
    -1.62599643e-03f,
    -7.40271211e-02f,
    -7.88947940e-02f,
    -2.47804269e-01f,
    +1.58341870e-01f,
    -1.36359911e-02f,
    +5.15888184e-02f,
    +9.93742049e-02f,
    -1.26661703e-01f,
    +8.02352875e-02f,
    -2.23650970e-02f,
    -5.32325171e-02f,
    -3.29358876e-02f,
    -2.05646574e-01f,
    +1.89860314e-01f,
    +2.01604310e-02f,
    +6.63251206e-02f,
    +1.01502515e-01f,
    +5.81664257e-02f,
    -1.35554835e-01f,
    -8.78045559e-02f,
    +9.00715441e-02f,
    +1.62483245e-01f,
    -1.44702271e-01f,
    -6.34820014e-02f,
    -1.52650535e-01f,
    +4.97667752e-02f,
    +8.52746293e-02f,
    -1.39125496e-01f,
    +6.66120127e-02f,
    -2.21530393e-01f,
    +1.75495863e-01f,
    -1.33127195e-03f,
    +5.06912842e-02f,
    +8.77775550e-02f,
    -1.01523466e-01f,
    +6.67758957e-02f,
    -7.07318485e-02f,
    -1.33970706e-02f,
    +8.98002237e-02f,
    -6.40883595e-02f,
    +5.97003754e-03f,
    -5.84576353e-02f,
    -1.06050067e-01f,
    -6.96721375e-02f,
    +8.66629183e-02f,
    +9.05524865e-02f,
    -8.08079820e-03f,
    +4.25199345e-02f,
    +3.39692011e-02f,
    -1.01594716e-01f,
    +4.05308716e-02f,
    +7.33243749e-02f,
    -6.28008470e-02f,
    -3.80430091e-03f,
    -5.13124876e-02f,
    -2.29929369e-02f,
    -1.71691235e-02f,
    -1.13509290e-01f,
    -2.27524862e-02f,
    -8.04056972e-02f,
    +7.67328369e-04f,
    +1.15435041e-01f,
    +5.74716255e-02f,
    -1.01127685e-03f,
    -8.77447613e-03f,
    -2.53003407e-02f,
    +4.00788849e-03f,
    -1.47559971e-01f,
    +8.43776315e-02f,
    -4.87284437e-02f,
    +5.92833720e-02f,
    -2.78703421e-02f,
    +6.83026612e-02f,
    +3.04903239e-02f,
    -5.32845818e-02f,
    -3.52327600e-02f,
    -2.48173339e-04f,
    +6.19995110e-02f,
    +6.25007525e-02f,
    -5.93985990e-02f,
    -7.63696060e-02f,
    +9.03560892e-02f,
    -3.98446172e-02f,
    +6.38254955e-02f,
    +2.70245038e-02f,
    -5.20884991e-02f,
    +3.23673710e-02f,
    -5.63477688e-02f,
    +7.74999037e-02f,
    +5.13562001e-02f,
    -4.82249297e-02f,
    -4.50056456e-02f,
    -5.42499349e-02f,
    -4.76125628e-02f,
    +7.47330561e-02f,
    -1.97779574e-02f,
    -2.24360218e-03f,
    -5.59656024e-02f,
    -1.91674922e-02f,
    -1.05772011e-01f,
    -3.75049375e-02f,
    +1.09163914e-02f,
    -4.08731923e-02f,
    +9.60900858e-02f,
    -1.78042203e-02f,
    -7.41882101e-02f,
    -1.45283252e-01f,
    +2.83542350e-02f,
    -1.63208451e-02f,
    -2.82809865e-02f,
    -5.41734025e-02f,
    -8.54257680e-03f,
    +2.65340321e-02f,
    +4.23476025e-02f,
    +6.83152676e-02f,
    +2.93942578e-02f,
    +9.33213532e-02f,
    -1.88635737e-02f,
    +6.67213053e-02f,
    +7.01217074e-03f,
    -8.34145322e-02f,
    -5.74663728e-02f,
    +9.99563485e-02f,
    -4.98682484e-02f,
    -7.60181397e-02f,
    +3.64800282e-02f,
    -2.25841086e-02f,
    +5.50893433e-02f,
    +2.76246108e-02f,
    +9.43643739e-04f,
    +3.03838551e-02f,
    -1.58396542e-01f,
    -9.18037891e-02f,
    -2.41274275e-02f,
    +4.23673280e-02f,
    -5.58272079e-02f,
    -1.56392641e-02f,
    +2.41873972e-02f,
    -9.42866355e-02f,
    -1.71074532e-02f,
    +6.99463859e-02f,
    +8.40457678e-02f,
    +5.36827324e-03f,
    +3.86934243e-02f,
    -1.33512422e-01f,
    +4.51549403e-02f,
    -2.68054362e-02f,
    -1.07229158e-01f,
    +1.25592038e-01f,
    -1.03977360e-01f,
    -2.69937254e-02f,
    +9.41542611e-02f,
    -1.38125226e-01f,
    -9.64460149e-02f,
    +2.24354528e-02f,
    +1.06032752e-01f,
    -1.40562743e-01f,
    -4.18648757e-02f,
    +4.95599397e-02f,
    -2.59140506e-03f,
    -4.85582203e-02f,
    -1.74366847e-01f,
    -3.08289230e-02f,
    -1.16091631e-01f,
    -4.96405214e-02f,
    +6.76142424e-02f,
    -1.25085488e-01f,
    +6.06452599e-02f,
    -8.68241936e-02f,
    -1.33346170e-01f,
    -1.08894426e-02f,
    +1.59139380e-01f,
    +2.59152483e-02f,
    -5.40269539e-02f,
    -1.33471593e-01f,
    -1.82979852e-01f,
    +3.45021859e-02f,
    +1.45094367e-02f,
    +2.68562976e-02f,
    -9.40108150e-02f,
    +5.56627586e-02f,
    +6.62620440e-02f,
    +5.67120872e-02f,
    +6.07039332e-02f,
    +1.39578268e-01f,
    +6.64682761e-02f,
    -7.95971677e-02f,
    -8.00747052e-02f,
    +3.71471085e-02f,
    +1.10543586e-01f,
    -8.44884217e-02f,
    +2.26776563e-02f,
    -1.41386464e-02f,
    -2.11067963e-02f,
    +1.02961622e-01f,
    -1.22633420e-01f,
    +2.03029998e-02f,
    +1.64710800e-05f,
    -1.23804025e-01f,
    +7.04495460e-02f,
    -8.85847807e-02f,
    +1.15493285e-02f,
    -2.14433059e-01f,
    -1.29098166e-02f,
    +3.67728584e-02f,
    -7.56567121e-02f,
    +7.26314411e-02f,
    +2.62966361e-02f,
    -2.37048477e-01f,
    -4.08152991e-04f,
    -2.86292899e-02f,
    -8.72031376e-02f,
    +6.77298382e-02f,
    +6.19574217e-03f,
    -1.53995052e-01f,
    +2.18557063e-02f,
    -7.09936544e-02f,
    -3.38593796e-02f,
    -7.84620419e-02f,
    +4.42492627e-02f,
    -2.93421932e-02f,
    +1.41070351e-01f,
    -8.78817067e-02f,
    +7.56693780e-02f,
    -5.30842505e-02f,
    -1.27652779e-01f,
    -6.32556304e-02f,
    -3.43504660e-02f,
    -1.58754215e-01f,
    -8.99239555e-02f,
    -2.03287229e-01f,
    -8.15295726e-02f,
    -1.58451557e-01f,
    -2.60633767e-01f,
    -1.02063231e-01f,
    -1.05521180e-01f,
    +7.79329911e-02f,
    -1.72232036e-02f,
    -3.32662649e-02f,
    -1.14565901e-01f,
    +7.88525771e-03f,
    -1.18975691e-01f,
    +6.91125244e-02f,
    +1.64156035e-02f,
    -4.80495431e-02f,
    -1.65191233e-01f,
    +8.26009586e-02f,
    +6.68603033e-02f,
    +1.49288839e-02f,
    -7.73442388e-02f,
    +2.24885702e-01f,
    -1.59279928e-02f,
    -1.11651886e-02f,
    -3.28753446e-03f,
    +1.71645358e-02f,
    +1.14258947e-02f,
    +1.91773307e-02f,
    +1.41188711e-01f,
    -1.88107893e-01f,
    -2.69730128e-02f,
    -3.15175764e-02f,
    +5.48376776e-02f,
    +4.48584594e-02f,
    -2.53282394e-02f,
    +7.23731369e-02f,
    +1.69766411e-01f,
    -1.00916855e-01f,
    +5.87377138e-02f,
    -1.95894793e-01f,
    +1.37190700e-01f,
    +1.17121585e-01f,
    +9.22245979e-02f,
    -7.98107907e-02f,
    +9.33988094e-02f,
    -8.71593133e-02f,
    -7.60538355e-02f,
    +5.65649793e-02f,
    -2.65002344e-03f,
    -7.83229992e-02f,
    -2.89402815e-04f,
    -1.02932885e-01f,
    +6.67939484e-02f,
    +7.44274026e-03f,
    -3.53478268e-02f,
    -7.68053904e-02f,
    +1.32438973e-01f,
    -1.96712203e-02f,
    -4.93819118e-02f,
    -1.21241860e-01f,
    -4.43174616e-02f,
    -5.83208948e-02f,
    -8.17386582e-02f,
    -1.16205812e-01f,
    -3.72158624e-02f,
    -2.27743670e-01f,
    -1.13591537e-01f,
    -1.96981132e-01f,
    -3.04705024e-01f,
    -3.10538970e-02f,
    +8.85900781e-02f,
    -3.34006771e-02f,
    -2.32242599e-01f,
    -1.46389771e-02f,
    -1.71769768e-01f,
    +1.10831477e-01f,
    -8.67413804e-02f,
    -2.11675942e-01f,
    -2.67999284e-02f,
    -9.59747285e-02f,
    -2.52531439e-01f,
    +9.23255235e-02f,
    -1.45066947e-01f,
    +1.46614879e-01f,
    -1.19855041e-02f,
    -1.20010130e-01f,
    -1.29185289e-01f,
    +7.43066370e-02f,
    -1.95467547e-01f,
    +4.59455363e-02f,
    +4.13524397e-02f,
    -1.66235909e-01f,
    +3.79826687e-02f,
    -3.85930762e-02f,
    +1.51340663e-01f,
    -5.67062050e-02f,
    +1.98072437e-02f,
    -3.90864201e-02f,
    +8.34071860e-02f,
    +3.81438970e-03f,
    +4.54880632e-02f,
    +2.66273003e-02f,
    +1.30095363e-01f,
    -2.28310809e-01f,
    +1.79628376e-02f,
    +9.23877954e-02f,
    +8.72079507e-02f,
    -3.66014205e-02f,
    -1.32795781e-01f,
    -2.12778911e-01f,
    -9.93786156e-02f,
    +1.71053410e-01f,
    +1.86286464e-01f,
    -1.54649317e-01f,
    -9.37966928e-02f,
    -1.81851849e-01f,
    +2.03352980e-02f,
    -4.42804545e-02f,
    -1.44162506e-01f,
    -3.69822867e-02f,
    -2.24901233e-02f,
    +1.39314249e-01f,
    -1.01995789e-01f,
    -7.60866255e-02f,
    -5.36370538e-02f,
    -1.15738675e-01f,
    -1.63486674e-02f,
    +6.09464757e-03f,
    +5.97840957e-02f,
    +2.16430590e-01f,
    -2.84995101e-02f,
    -2.09350660e-02f,
    +1.17946200e-01f,
    +5.75070903e-02f,
    +4.17322628e-02f,
    -2.24341508e-02f,
    +6.82484033e-03f,
    -6.96280748e-02f,
    +1.27698584e-02f,
    -9.98924226e-02f,
    -2.12277342e-02f,
    +5.32416441e-02f,
    -6.50677015e-04f,
    +1.55659821e-02f,
    +1.37426183e-01f,
    -1.64245188e-01f,
    +5.59309050e-02f,
    -3.54944393e-02f,
    +3.36478129e-02f,
    +3.28203738e-02f,
    +3.87345254e-02f,
    +8.74635950e-02f,
    -7.56973475e-02f,
    +3.52801377e-04f,
    -8.42755064e-02f,
    -5.22014461e-02f,
    +1.05330594e-01f,
    +5.06554395e-02f,
    -1.63210437e-01f,
    -5.42252474e-02f,
    -6.03708923e-02f,
    +1.59617644e-02f,
    -1.62920300e-02f,
    +6.17095968e-03f,
    -2.75751818e-02f,
    -6.71389103e-02f,
    +1.05035432e-01f,
    +4.30392884e-02f,
    -4.03357260e-02f,
    +8.02678987e-02f,
    +2.63649933e-02f,
    -5.39106317e-03f,
    -8.08779299e-02f,
    +4.84989509e-02f,
    -5.08235283e-02f,
    +6.96673021e-02f,
    -4.39508259e-02f,
    +2.12100446e-02f,
    -6.16879016e-02f,
    +1.13590181e-01f,
    +1.09291263e-02f,
    -7.55445734e-02f,
    +6.47640154e-02f,
    -5.86955436e-02f,
    +1.44794568e-01f,
    -1.41653806e-01f,
    +3.86246331e-02f,
    +3.44100371e-02f,
    -1.79622043e-02f,
    +5.15893698e-02f,
    +2.52999831e-02f,
    +6.32118881e-02f,
    -1.59106925e-02f,
    -2.01970227e-02f,
    +5.28041907e-02f,
    +7.60326162e-02f,
    -9.61963460e-03f,
    +5.25994524e-02f,
    +2.44217589e-02f,
    +3.03243026e-02f,
    +1.45778088e-02f,
    +2.48903651e-02f,
    +2.11183578e-02f,
    +2.04504859e-02f,
    -1.25614524e-01f,
    +6.89110756e-02f,
    +4.56976565e-03f,
    -5.02269715e-02f,
    +1.27559165e-02f,
    -1.00895017e-01f,
    +3.59184714e-03f,
    -9.65893641e-02f,
    -1.16062686e-01f,
    -2.87645422e-02f,
    -1.20189838e-01f,
    -2.82501671e-02f,
    +1.32687822e-01f,
    +2.76580527e-02f,
    +4.45719548e-02f,
    +3.70397419e-03f,
    +2.96421978e-03f,
    -5.80302216e-02f,
    -1.05503224e-01f,
    -1.37154106e-02f,
    +8.26497823e-02f,
    -1.09240543e-02f,
    -1.54536227e-02f,
    +3.14939991e-02f,
    -3.27484682e-03f,
    +5.25577962e-02f,
    -9.56578627e-02f,
    -6.43243939e-02f,
    +1.01998352e-01f,
    -7.72595033e-02f,
    +5.63090015e-03f,
    -1.26400933e-01f,
    -6.52146246e-03f,
    +4.61756662e-02f,
    -4.47037481e-02f,
    +4.41490524e-02f,
    -8.34775269e-02f,
    +8.40831548e-02f,
    +6.54529035e-02f,
    +1.46085555e-02f,
    +4.16240329e-03f,
    -3.28523852e-02f,
    +9.59848836e-02f,
    -2.36429460e-02f,
    -5.42011000e-02f,
    +5.35076074e-02f,
    +7.46001396e-03f,
    +3.36796679e-02f,
    -1.20315086e-02f,
    -3.51297073e-02f,
    -1.36826783e-01f,
    -1.11471333e-01f,
    +2.48191226e-02f,
    +8.79828036e-02f,
    +2.52330173e-02f,
    -5.90680018e-02f,
    +1.38752729e-01f,
    -1.21760458e-01f,
    -3.84119377e-02f,
    +4.24829647e-02f,
    +1.54375164e-02f,
    +3.66420001e-02f,
    +3.86131601e-03f,
    +6.46336004e-02f,
    -1.43642604e-01f,
    +2.69101504e-02f,
    -2.77076289e-03f,
    +4.18265909e-02f,
    +4.59218882e-02f,
    -1.04606099e-01f,
    -5.90231493e-02f,
    -1.24361636e-02f,
    -1.98968537e-02f,
    -1.17216349e-01f,
    -3.04636918e-03f,
    -7.25296661e-02f,
    -7.67336115e-02f,
    +5.03523685e-02f,
    +5.48202097e-02f,
    -5.08348756e-02f,
    -1.25592947e-01f,
    +1.87048484e-02f,
    -2.90226154e-02f,
    +9.92715210e-02f,
    +8.17912072e-02f,
    -3.14498413e-03f,
    -1.12181850e-01f,
    +7.37887621e-02f,
    -5.81434220e-02f,
    +3.29065993e-02f,
    +2.95789707e-02f,
    +5.27301878e-02f,
    +9.12671983e-02f,
    -2.99597234e-02f,
    +4.66296896e-02f,
    -1.76968843e-01f,
    +7.41501525e-03f,
    +5.80813214e-02f,
    -1.17371783e-01f,
    +1.52795553e-01f,
    -1.36347070e-01f,
    -3.96577362e-03f,
    -2.42293663e-02f,
    -3.71100567e-02f,
    -5.44233732e-02f,
    -7.73760453e-02f,
    +3.89502011e-02f,
    -3.52482237e-02f,
    +6.95816204e-02f,
    +3.05933394e-02f,
    +7.38422275e-02f,
    -2.37982962e-02f,
    -6.41193837e-02f,
    +3.93510126e-02f,
    -8.36189985e-02f,
    +4.35136035e-02f,
    +9.84928384e-02f,
    +7.24134743e-02f,
    -8.44983757e-02f,
    +2.47068945e-02f,
    -1.67555772e-02f,
    -8.90361294e-02f,
    -1.09063670e-01f,
    -1.04813632e-02f,
    +4.05917615e-02f,
    +9.28803384e-02f,
    -3.81947011e-02f,
    +2.55328137e-02f,
    -6.51655495e-02f,
    +6.14305818e-03f,
    -4.29033712e-02f,
    +9.69650671e-02f,
    +6.07746430e-02f,
    -1.18630283e-01f,
    -3.79931405e-02f,
    -4.99020563e-03f,
    -8.30890164e-02f,
    +2.78193057e-02f,
    -1.40130445e-01f,
    +7.88132548e-02f,
    -2.72448119e-02f,
    +6.49466291e-02f,
    +4.18226123e-02f,
    +1.14874221e-01f,
    -3.59509625e-02f,
    -8.44558999e-02f,
    -1.24462932e-01f,
    +4.44938466e-02f,
    -2.34617107e-02f,
    -1.33653479e-02f,
    -9.23924670e-02f,
    -2.65910160e-02f,
    -5.34645170e-02f,
    -8.99019092e-03f,
    +1.00804880e-01f,
    +5.29659912e-02f,
    +5.78015670e-02f,
    -3.36041823e-02f,
    -1.41737044e-01f,
    -7.18346983e-02f,
    -5.29727452e-02f,
    -4.46144417e-02f,
    +3.43108438e-02f,
    +6.28046393e-02f,
    -1.11097343e-01f,
    +7.30499923e-02f,
    -4.26344499e-02f,
    -1.98753178e-02f,
    -6.75753281e-02f,
    -7.07503706e-02f,
    -3.85072455e-02f,
    -1.39410466e-01f,
    +3.89366560e-02f,
    -4.17830748e-03f,
    +2.98769884e-02f,
    -1.75391883e-02f,
    -4.55572531e-02f,
    -7.30587170e-02f,
    -1.09842852e-01f,
    +1.33273015e-02f,
    +1.67697866e-03f,
    +2.07858663e-02f,
    +8.34053308e-02f,
    +2.34791692e-02f,
    +9.95681807e-02f,
    -5.63069135e-02f,
    -6.92082569e-02f,
    +5.70924170e-02f,
    +1.06996104e-01f,
    -2.49013212e-02f,
    +7.13613927e-02f,
    -3.77940722e-02f,
    -1.21424422e-01f,
    -1.52723202e-02f,
    +7.08425567e-02f,
    +9.96608287e-03f,
    +2.15043966e-02f,
    -3.28091322e-03f,
    -5.31892776e-02f,
    +2.49711294e-02f,
    -1.10436723e-01f,
    -7.87807107e-02f,
    -1.54040411e-01f,
    -6.24428727e-02f,
    +4.56595458e-02f,
    -2.90239975e-02f,
    -1.97084602e-02f,
    +5.72998002e-02f,
    -1.18063606e-01f,
    -7.87332878e-02f,
    -9.55344513e-02f,
    +5.64290509e-02f,
    +5.54913830e-04f,
    +2.85895709e-02f,
    -6.24360144e-02f,
    -2.86853896e-03f,
    +1.95032638e-02f,
    +6.14325777e-02f,
    -2.12060772e-02f,
    +1.02907285e-01f,
    -2.61413343e-02f,
    -7.42613077e-02f,
    -1.60756577e-02f,
    -1.74967855e-01f,
    -1.41080609e-02f,
    +2.09208280e-02f,
    -7.68798636e-03f,
    +5.71121760e-02f,
    -1.21101595e-01f,
    +5.94591647e-02f,
    +2.57478636e-02f,
    -6.37056679e-02f,
    -4.31142412e-02f,
    -4.24013957e-02f,
    +5.46754748e-02f,
    -2.09316742e-02f,
    +2.81159859e-02f,
    +4.28118110e-02f,
    +5.24873845e-02f,
    +7.05271140e-02f,
    -2.07686494e-03f,
    -1.15573108e-01f,
    -1.42628342e-01f,
    -3.31392772e-02f,
    +2.77236439e-02f,
    -1.55579401e-02f,
    -1.33332284e-02f,
    -8.78299624e-02f,
    -1.35185465e-01f,
    -4.44089854e-03f,
    +4.47426438e-02f,
    -2.11288612e-02f,
    -4.68139462e-02f,
    +2.82629244e-02f,
    -8.34062509e-03f,
    +8.76309443e-03f,
    +4.37439829e-02f,
    +1.02379546e-01f,
    -2.16766652e-02f,
    +3.57730389e-02f,
    -7.95146152e-02f,
    +1.72849540e-02f,
    -1.38441790e-02f,
    -1.42778810e-02f,
    -1.07308604e-01f,
    +1.72440019e-02f,
    -1.14361934e-01f,
    +1.82505045e-02f,
    +1.78354532e-01f,
    +9.43707209e-03f,
    -5.36091859e-03f,
    +1.05222076e-01f,
    +5.53384386e-02f,
    +6.41498119e-02f,
    -1.72593132e-01f,
    -5.41203059e-02f,
    +4.07634154e-02f,
    +5.87114086e-03f,
    +4.32874151e-02f,
    -7.79140815e-02f,
    +4.85906936e-02f,
    -5.01940027e-02f,
    +2.01329011e-02f,
    +3.74414697e-02f,
    -2.69674491e-02f,
    +5.02948202e-02f,
    -7.52018541e-02f,
    -4.32823971e-03f,
    -4.83539142e-02f,
    +1.04747623e-01f,
    -8.14673081e-02f,
    +6.47521541e-02f,
    -6.59406185e-02f,
    -1.42808883e-02f,
    +5.17375283e-02f,
    +4.03786786e-02f,
    -1.12258864e-03f,
    -5.70889050e-03f,
    +2.88399439e-02f,
    -1.16822369e-01f,
    +5.24405064e-03f,
    +1.45810544e-02f,
    +9.78844240e-02f,
    +8.59215781e-02f,
    -6.06928654e-02f,
    -8.11087564e-02f,
    -1.00708172e-01f,
    +7.03384057e-02f,
    +6.77666739e-02f,
    -8.14186931e-02f,
    +3.24061103e-02f,
    -3.57130133e-02f,
    -3.70445177e-02f,
    +5.12756631e-02f,
    -6.76483288e-02f,
    -8.39994028e-02f,
    -2.92075938e-03f,
    +8.30437168e-02f,
    -1.39231279e-01f,
    +2.06661951e-02f,
    -9.48367715e-02f,
    -1.22013398e-01f,
    +1.41056348e-02f,
    -1.47978455e-01f,
    -9.14885104e-03f,
    -2.82394867e-02f,
    +2.59089796e-03f,
    +7.94749856e-02f,
    +5.69618680e-02f,
    -1.86291933e-02f,
    +4.74013202e-03f,
    -2.31712852e-02f,
    -6.31787851e-02f,
    -6.83549196e-02f,
    +8.43461603e-02f,
    -5.51357865e-02f,
    -5.23747951e-02f,
    -9.37585607e-02f,
    +3.13454233e-02f,
    -4.70481031e-02f,
    +1.15785517e-01f,
    +6.75743669e-02f,
    -8.98827538e-02f,
    -2.89403014e-02f,
    +1.57456975e-02f,
    -7.52540156e-02f,
    -1.55422119e-02f,
    -3.78453434e-02f,
    +8.64674430e-03f,
    -1.33788094e-01f,
    -4.27209400e-02f,
    -2.27247611e-01f,
    -2.71158386e-02f,
    -5.10726869e-02f,
    -9.98612940e-02f,
    +1.29377171e-01f,
    -5.76681346e-02f,
    -2.92750578e-02f,
    -2.03817617e-02f,
    -5.23220152e-02f,
    +5.33182546e-02f,
    +8.98763016e-02f,
    -5.74959517e-02f,
    +1.93996467e-02f,
    -9.79891196e-02f,
    +9.71032530e-02f,
    +1.00110352e-01f,
    -5.13121337e-02f,
    -5.80170937e-03f,
    -7.44418660e-03f,
    -3.95090953e-02f,
    -6.83869654e-03f,
    +1.81031395e-02f,
    +1.12583101e-01f,
    -4.50614095e-02f,
    +5.61640784e-03f,
    +5.35281263e-02f,
    +3.42250243e-02f,
    -1.11958332e-01f,
    -5.18748052e-02f,
    -2.10103765e-02f,
    +2.39035692e-02f,
    +2.78423820e-02f,
    +1.55325485e-02f,
    -8.90609622e-02f,
    +2.22126450e-02f,
    +2.55548116e-02f,
    +1.32817598e-02f,
    +1.31720752e-01f,
    -1.07694246e-01f,
    +8.89453590e-02f,
    +3.23586203e-02f,
    -4.98373471e-02f,
    -1.56042911e-02f,
    -2.14139596e-02f,
    +6.58969209e-03f,
    -1.84674989e-02f,
    +6.63930625e-02f,
    -3.19090672e-03f,
    -1.85301937e-02f,
    +2.55981982e-02f,
    -5.84433898e-02f,
    -1.64728194e-01f,
    +5.06232567e-02f,
    -2.60200053e-02f,
    +6.01138659e-02f,
    -6.55464604e-02f,
    -3.38569731e-02f,
    -1.61146283e-01f,
    +3.49410586e-02f,
    +1.14370979e-01f,
    +1.09954417e-01f,
    -1.42167080e-02f,
    -1.70518681e-02f,
    -1.61307886e-01f,
    +7.14567956e-03f,
    +9.50005185e-03f,
    +6.87075481e-02f,
    +1.70418210e-02f,
    +1.05934717e-01f,
    -5.20039126e-02f,
    -8.16191882e-02f,
    +7.62016624e-02f,
    +8.83479938e-02f,
    -3.88887003e-02f,
    -4.65691462e-02f,
    +1.14287160e-01f,
    +1.99941769e-02f,
    +2.66651884e-02f,
    +3.65904868e-02f,
    -3.13973501e-02f,
    +1.79244857e-02f,
    -7.13292044e-03f,
    -7.27515221e-02f,
    +8.03107768e-03f,
    -3.58388498e-02f,
    -1.60559222e-01f,
    -5.31300530e-02f,
    -1.76191092e-01f,
    -1.64194271e-01f,
    -2.00885981e-01f,
    -1.00032866e-01f,
    +2.43812781e-02f,
    +2.50906460e-02f,
    -5.71677759e-02f,
    -2.09289551e-01f,
    -1.28057569e-01f,
    +2.76404787e-02f,
    +2.73522399e-02f,
    -9.29938704e-02f,
    -1.06746271e-01f,
    -8.65902007e-02f,
    -3.69196087e-02f,
    +6.74509481e-02f,
    -1.61313459e-01f,
    +2.04928163e-02f,
    +6.66898936e-02f,
    -1.10469766e-01f,
    +1.04241803e-01f,
    -5.55234179e-02f,
    +3.79463509e-02f,
    +1.09935878e-02f,
    +5.08639105e-02f,
    -7.46729597e-02f,
    -1.02545097e-01f,
    +1.00006185e-01f,
    -7.26341382e-02f,
    -7.93879107e-03f,
    +6.58425316e-02f,
    -1.21025048e-01f,
    +3.10515631e-02f,
    -1.06380776e-01f,
    -1.12551913e-01f,
    -1.91286430e-01f,
    -9.25613567e-02f,
    -7.25374278e-03f,
    -1.19506776e-01f,
    +1.15316786e-01f,
    -2.82173278e-03f,
    -1.77849513e-02f,
    -8.59897882e-02f,
    -8.28791186e-02f,
    -1.01003870e-01f,
    -4.71727476e-02f,
    +7.15292394e-02f,
    -7.48364031e-02f,
    -2.58995546e-03f,
    -8.60477984e-02f,
    +6.05392568e-02f,
    -1.03121519e-01f,
    +4.21535736e-03f,
    +8.91238451e-02f,
    -1.39100198e-02f,
    -4.60041389e-02f,
    -1.92357376e-01f,
    -4.75131646e-02f,
    -1.67719889e-02f,
    +4.43235114e-02f,
    -2.98672076e-03f,
    -1.41629770e-01f,
    +7.58440718e-02f,
    -4.61907946e-02f,
    +2.19890084e-02f,
    +7.51950666e-02f,
    -3.89598049e-02f,
    +3.26133333e-02f,
    +1.64313316e-02f,
    +2.06284672e-02f,
    -2.45634578e-02f,
    +1.49054870e-01f,
    -1.52311856e-02f,
    -4.49052863e-02f,
    -1.35597646e-01f,
    +4.36518528e-03f,
    +4.16768938e-02f,
    -9.28941071e-02f,
    +1.89919751e-02f,
    -3.86493653e-02f,
    -1.21747337e-01f,
    +2.22926699e-02f,
    -8.69886503e-02f,
    -2.85874121e-02f,
    -1.06774047e-01f,
    -5.12674525e-02f,
    -1.34899139e-01f,
    +1.68952029e-02f,
    +8.28555450e-02f,
    -1.04851900e-02f,
    -9.99349430e-02f,
    -7.50398114e-02f,
    +1.67123601e-01f,
    +6.04542345e-02f,
    +1.56255201e-01f,
    +1.36791272e-02f,
    -9.68091637e-02f,
    -1.75681747e-02f,
    -3.61353233e-02f,
    +5.91225289e-02f,
    -6.22361749e-02f,
    +2.21538376e-02f,
    +1.03518903e-01f,
    -8.99112001e-02f,
    +1.57646388e-02f,
    -1.76002368e-01f,
    +4.48657647e-02f,
    -6.09036535e-02f,
    -1.19697414e-01f,
    +1.82123542e-01f,
    +1.07460991e-01f,
    +6.92691877e-02f,
    +6.78430311e-03f,
    -8.29761252e-02f,
    +6.20338991e-02f,
    +7.76292607e-02f,
    +4.62218970e-02f,
    +1.52722120e-01f,
    -1.08355425e-01f,
    +1.56045213e-01f,
    +6.19555004e-02f,
    +6.50402755e-02f,
    -5.59668988e-02f,
    -6.63339123e-02f,
    -4.74029593e-02f,
    +4.18031141e-02f,
    -1.18530184e-01f,
    -1.18466102e-01f,
    -4.17115875e-02f,
    -5.06196208e-02f,
    -2.74448276e-01f,
    -3.99376974e-02f,
    -1.22464769e-01f,
    -4.10496593e-02f,
    -8.19243491e-02f,
    +8.58958066e-02f,
    -4.51483428e-02f,
    +5.23953736e-02f,
    -2.83439597e-03f,
    +4.88857850e-02f,
    +3.20116095e-02f,
    +9.41816494e-02f,
    -2.37252023e-02f,
    -1.01257078e-01f,
    -8.67520347e-02f,
    -1.16601080e-01f,
    -3.43281850e-02f,
    +2.02702224e-01f,
    -5.87334074e-02f,
    +3.93281952e-02f,
    -1.97261069e-02f,
    +4.01739292e-02f,
    -9.08886716e-02f,
    +8.23947862e-02f,
    +1.47198737e-01f,
    +6.10414222e-02f,
    -3.05895936e-02f,
    -9.60428044e-02f,
    -1.20856836e-01f,
    +6.78984001e-02f,
    -1.20783942e-02f,
    +6.94389641e-02f,
    +1.68422580e-01f,
    -6.68498725e-02f,
    +6.13090098e-02f,
    -1.06478371e-01f,
    +1.64572179e-01f,
    +6.35001436e-02f,
    +3.30019519e-02f,
    +1.02139585e-01f,
    +5.67206703e-02f,
    +7.13133886e-02f,
    +5.43616749e-02f,
    -1.42312169e-01f,
    -7.89124593e-02f,
    -1.72657982e-01f,
    -9.56922919e-02f,
    -6.71810657e-02f,
    +1.24611361e-02f,
    -1.19880468e-01f,
    -2.17109174e-01f,
    -1.64772481e-01f,
    +1.04522705e-01f,
    -1.45634636e-01f,
    +3.09818815e-02f,
    -5.76360710e-02f,
    -1.72168072e-02f,
    -2.72767525e-02f,
    -3.75525802e-02f,
    -2.82142013e-02f,
    +9.92513001e-02f,
    -7.61820674e-02f,
    +1.17939278e-01f,
    +1.54187810e-02f,
    -5.13572828e-04f,
    +4.74636219e-02f,
    +4.41090278e-02f,
    +2.40860619e-02f,
    -9.72942039e-02f,
    -9.71830264e-02f,
    -7.69441575e-02f,
    +1.59133926e-01f,
    -1.34577407e-02f,
    +1.19672261e-01f,
    -3.25583434e-03f,
    +9.96072963e-02f,
    -6.71502724e-02f,
    -2.44925618e-02f,
    +6.59168661e-02f,
    +3.48810591e-02f,
    -1.11325622e-01f,
    +3.52716744e-02f,
    -2.58543976e-02f,
    +9.17042792e-02f,
    +1.17380664e-01f,
    -2.31938828e-02f,
    +1.01158649e-01f,
    -4.03146408e-02f,
    +1.21554010e-01f,
    +6.66287690e-02f,
    -8.63368735e-02f,
    -4.85938117e-02f,
    -3.51855084e-02f,
    -1.26898944e-01f,
    -4.41198833e-02f,
    -4.81429556e-03f,
    +1.81933455e-02f,
    -1.28611580e-01f,
    +1.37970060e-01f,
    +8.13311562e-02f,
    -9.65053439e-02f,
    +4.33576629e-02f,
    +7.89979696e-02f,
    -2.00279847e-01f,
    +2.07050852e-02f,
    -9.13441926e-02f,
    -1.23214033e-02f,
    +1.38910636e-01f,
    +1.47610456e-02f,
    -1.08036511e-01f,
    +4.75972369e-02f,
    -1.59295306e-01f,
    -3.01409774e-02f,
    -3.67828049e-02f,
    +1.63828969e-01f,
    -6.36831895e-02f,
    -2.06777789e-02f,
    +7.90555775e-03f,
    +8.15013722e-02f,
    -6.21962063e-02f,
    -2.27698296e-01f,
    -3.55279073e-02f,
    -1.59268171e-01f,
    -3.11796069e-02f,
    +6.55986145e-02f,
    -1.06804460e-01f,
    +6.38253912e-02f,
    -5.03557511e-02f,
    -4.18636799e-02f,
    +1.31155327e-02f,
    +8.00814629e-02f,
    +1.01170301e-01f,
    +2.22617052e-02f,
    -1.25107273e-01f,
    +2.00342033e-02f,
    +1.21301055e-01f,
    +8.14758912e-02f,
    +1.14223264e-01f,
    +1.17309028e-02f,
    +4.75424416e-02f,
    +6.47440702e-02f,
    +2.15157829e-02f,
    +1.32720647e-02f,
    +4.03922834e-02f,
    -3.76306176e-02f,
    -1.48721947e-03f,
    -9.73858163e-02f,
    +1.53768603e-02f,
    +6.72887266e-02f,
    -6.34060800e-02f,
    +1.28290337e-02f,
    +4.10717092e-02f,
    -5.86693175e-02f,
    +5.44827664e-03f,
    -2.48946398e-01f,
    -5.45695145e-03f,
    +6.90408200e-02f,
    -1.79149657e-02f,
    -1.16733210e-02f,
    -2.56929621e-02f,
    +3.80916260e-02f,
    -7.19478801e-02f,
    +1.35714442e-01f,
    +9.31241587e-02f,
    -1.01851650e-01f,
    +1.00557670e-01f,
    -8.08901191e-02f,
    -1.87627226e-01f,
    +6.28850162e-02f,
    -4.37631495e-02f,
    -1.78063557e-01f,
    -2.74011549e-02f,
    -2.45387126e-02f,
    -1.29818201e-01f,
    +3.10600344e-02f,
    -1.71479478e-01f,
    -9.07209590e-02f,
    -1.40283164e-02f,
    +1.78562611e-01f,
    -9.36733857e-02f,
    -2.02405341e-02f,
    -1.44991484e-02f,
    +9.20191482e-02f,
    -6.48927093e-02f,
    -1.95933193e-01f,
    -1.57404780e-01f,
    -3.06447186e-02f,
    -7.50541687e-02f,
    +1.50695946e-02f,
    -5.80257550e-02f,
    +9.44996253e-02f,
    +2.60100476e-02f,
    +3.55742164e-02f,
    -4.68511730e-02f,
    +4.79908194e-03f,
    -4.05230152e-04f,
    +7.97163025e-02f,
    +1.17000915e-01f,
    -6.10450506e-02f,
    -3.59243043e-02f,
    -6.55035600e-02f,
    +2.58275159e-02f,
    -2.31464598e-02f,
    +3.54345143e-02f,
    -4.66043279e-02f,
    -1.32352725e-01f,
    -6.06464706e-02f,
    +4.23042960e-02f,
    -4.85840663e-02f,
    -3.59597206e-02f,
    -1.42272204e-01f,
    -3.12198158e-02f,
    +1.30140567e-02f,
    +7.06483349e-02f,
    +4.20932770e-02f,
    +8.43784362e-02f,
    -1.26357704e-01f,
    -1.31845862e-01f,
    -1.38486340e-03f,
    +2.55709048e-02f,
    +5.39016165e-02f,
    -3.94579619e-02f,
    -9.36473235e-02f,
    +2.75898892e-02f,
    -7.78730661e-02f,
    +3.55671048e-02f,
    -1.08219227e-02f,
    -2.01208759e-02f,
    -2.80858353e-02f,
    -4.13952209e-02f,
    -1.59834772e-02f,
    -1.92290619e-01f,
    +3.24481055e-02f,
    +7.01939315e-02f,
    -1.82418851e-04f,
    +1.13212377e-01f,
    +9.01822653e-03f,
    -3.85633148e-02f,
    +9.21657458e-02f,
    +7.06583261e-02f,
    +2.12330427e-02f,
    -8.58216211e-02f,
    +4.77442369e-02f,
    +1.75832380e-02f,
    -4.25745286e-02f,
    +7.40432441e-02f,
    +1.36244163e-01f,
    +7.41225630e-02f,
    -1.23160489e-01f,
    -4.25218139e-03f,
    -9.67285931e-02f,
    -8.93880501e-02f,
    -8.70515965e-03f,
    -1.62331313e-01f,
    +2.99498588e-02f,
    +6.80955797e-02f,
    -1.33716494e-01f,
    -4.65877578e-02f,
    +6.77290047e-03f,
    +5.30182235e-02f,
    -2.25757267e-02f,
    +1.81524336e-01f,
    -8.94775465e-02f,
    +1.14696898e-01f,
    -5.20825349e-02f,
    +8.42904598e-02f,
    -2.40190867e-02f,
    -1.29532162e-03f,
    -1.50024354e-01f,
    +4.81914915e-03f,
    +1.72386877e-02f,
    -1.11214437e-01f,
    -7.70644918e-02f,
    +7.14684799e-02f,
    -1.51823267e-01f,
    +3.13611850e-02f,
    +6.28535748e-02f,
    -4.69768383e-02f,
    -4.66721356e-02f,
    -4.35413653e-03f,
    +1.20870277e-01f,
    -8.01050141e-02f,
    -1.24287643e-01f,
    +1.03367055e-02f,
    +1.46830425e-01f,
    +4.04570550e-02f,
    +7.74823576e-02f,
    +4.87279743e-02f,
    +8.48035142e-02f,
    +2.86065731e-02f,
    +1.08500384e-02f,
    -7.67373368e-02f,
    +1.61685303e-01f,
    +2.10205782e-02f,
    +4.46126051e-02f,
    -1.73189819e-01f,
    +3.40501703e-02f,
    +5.35237677e-02f,
    +2.43321583e-02f,
    +9.74988639e-02f,
    -8.44105408e-02f,
    -1.29886255e-01f,
    +2.21695155e-02f,
    -1.16380818e-01f,
    -8.50923434e-02f,
    -9.26595852e-02f,
    +6.57407269e-02f,
    -6.92171976e-02f,
    -2.82388814e-02f,
    +2.85813808e-02f,
    +6.33562403e-03f,
    +1.18100278e-01f,
    -4.46856953e-03f,
    -6.85099661e-02f,
    -3.79808024e-02f,
    +7.17083439e-02f,
    -6.44577900e-03f,
    +1.25485808e-01f,
    -1.23327143e-01f,
    -1.76380560e-01f,
    +4.04559895e-02f,
    +5.52385673e-02f,
    +3.01464610e-02f,
    -1.44939691e-01f,
    +5.10591790e-02f,
    -1.72941029e-01f,
    -8.19324180e-02f,
    -1.71409965e-01f,
    -6.67092800e-02f,
    -9.47830640e-03f,
    -1.54594155e-02f,
    +7.87171647e-02f,
    +4.19260710e-02f,
    -3.88853401e-02f,
    +5.17275259e-02f,
    -2.18254551e-02f,
    -2.73108445e-02f,
    -1.22356750e-01f,
    +8.03252980e-02f,
    -8.75007436e-02f,
    -1.86499618e-02f,
    -9.56900120e-02f,
    -9.85907838e-02f,
    -5.62708676e-02f,
    -8.69669691e-02f,
    +3.93808167e-03f,
    -5.00195287e-02f,
    -6.95326030e-02f,
    +4.46112379e-02f,
    -1.49542198e-01f,
    +1.85256675e-02f,
    -1.25512496e-01f,
    -8.05435851e-02f,
    -6.29363060e-02f,
    -2.54933059e-01f,
    -2.63218470e-02f,
    -8.20436701e-02f,
    -9.37463567e-02f,
    -1.55119281e-02f,
    +1.65258124e-02f,
    -9.12036598e-02f,
    -2.42172163e-02f,
    -1.65251307e-02f,
    -4.27196361e-02f,
    -6.18540077e-03f,
    -6.65566847e-02f,
    -1.00134790e-01f,
    +6.01677038e-02f,
    +1.11127667e-01f,
    +4.29088995e-03f,
    +7.81969950e-02f,
    +1.01235233e-01f,
    +1.06940262e-01f,
    -3.88967581e-02f,
    -1.02129452e-01f,
    -8.62660557e-02f,
    -1.87602974e-02f,
    -1.42252399e-02f,
    +2.94166449e-02f,
    -7.21449181e-02f,
    +5.15429974e-02f,
    -5.35453483e-02f,
    +2.51341946e-02f,
    -7.77788758e-02f,
    -1.33811414e-01f,
    +1.32613908e-02f,
    -2.20698100e-02f,
    +1.00519486e-01f,
    +3.73563543e-02f,
    +8.95652995e-02f,
    +9.67473760e-02f,
    +8.78063962e-02f,
    -4.72885668e-02f,
    +1.44057229e-01f,
    -1.09060723e-02f,
    -5.38467169e-02f,
    +8.56309161e-02f,
    -3.64261717e-02f,
    +7.93225542e-02f,
    -2.58644447e-02f,
    -8.17362368e-02f,
    -3.61226015e-02f,
    -8.88306275e-02f,
    -8.34894646e-03f,
    +1.64549246e-01f,
    +6.56627268e-02f,
    +8.45888034e-02f,
    +6.09315336e-02f,
    -8.23325757e-03f,
    +3.14941369e-02f,
    -1.27374500e-01f,
    -3.49351615e-02f,
    +2.88849045e-02f,
    +6.34120926e-02f,
    -4.64469939e-02f,
    +5.73101752e-02f,
    -1.12355994e-02f,
    +8.56254343e-03f,
    +5.31633310e-02f,
    -5.11041880e-02f,
    +5.20547591e-02f,
    -1.11027854e-02f,
    +4.60194536e-02f,
    -1.98189273e-01f,
    +3.33018526e-02f,
    -4.89859730e-02f,
    -1.09004304e-01f,
    +7.00420737e-02f,
    -3.12875621e-02f,
    +5.70645966e-02f,
    -2.51502506e-02f,
    -2.71495408e-03f,
    +3.20305228e-02f,
    -6.67270571e-02f,
    +9.79449153e-02f,
    -9.67395380e-02f,
    +1.03814956e-02f,
    +5.05147167e-02f,
    +1.21443875e-01f,
    -1.51567375e-02f,
    -1.79603115e-01f,
    -1.55317426e-01f,
    -1.23940095e-01f,
    -1.17833443e-01f,
    +4.76477817e-02f,
    +3.13925408e-02f,
    +5.21093197e-02f,
    -8.99501797e-03f,
    +1.08266160e-01f,
    -2.47440878e-02f,
    -3.71318124e-02f,
    +4.90712933e-02f,
    +1.17526002e-01f,
    +9.82701257e-02f,
    -4.47349027e-02f,
    -9.59369726e-03f,
    -7.80776888e-02f,
    +2.45833304e-02f,
    +3.21638435e-02f,
    -6.83637857e-02f,
    +6.06353506e-02f,
    +6.98522106e-02f,
    -3.46156396e-02f,
    +1.29554300e-02f,
    -1.25238702e-01f,
    -2.85886135e-02f,
    -7.90199637e-02f,
    -2.50309915e-03f,
    -4.40086089e-02f,
    +8.99665132e-02f,
    +1.69039820e-04f,
    +7.88527206e-02f,
    -2.04612990e-03f,
    -9.56046060e-02f,
    -8.02152883e-03f,
    +3.26070637e-02f,
    +4.39498387e-02f,
    -3.73153649e-02f,
    -1.07974805e-01f,
    -4.09642346e-02f,
    +1.02424053e-02f,
    +5.39628044e-02f,
    -2.52286363e-02f,
    -3.83535624e-02f,
    -5.15080132e-02f,
    -6.97263703e-02f,
    -5.05169295e-02f,
    -1.26234144e-01f,
    +1.50821246e-02f,
    -6.11800402e-02f,
    +7.81544019e-03f,
    +4.07405980e-02f,
    -1.33876517e-01f,
    +6.72451258e-02f,
    -4.42850171e-03f,
    +3.32438089e-02f,
    -8.78876820e-02f,
    -3.48622650e-02f,
    +3.49683687e-02f,
    +8.25725198e-02f,
    -6.57040253e-02f,
    +3.03726289e-02f,
    +6.42591566e-02f,
    -4.31701243e-02f,
    -9.51327607e-02f,
    -5.10131419e-02f,
    -3.66712585e-02f,
    -9.92580354e-02f,
    +1.39867431e-02f,
    +4.49835956e-02f,
    +7.11227879e-02f,
    +5.76461814e-02f,
    -7.17288628e-02f,
    -1.09689936e-01f,
    +6.69471547e-02f,
    +7.97424559e-03f,
    +1.07931420e-02f,
    +1.94165893e-02f,
    -3.07053607e-02f,
    +1.26150707e-02f,
    -5.67616820e-02f,
    +7.60997087e-02f,
    -8.46169069e-02f,
    +4.94552627e-02f,
    -8.11639503e-02f,
    +2.29881331e-02f,
    +6.63668364e-02f,
    -1.18147440e-01f,
    -5.63115403e-02f,
    +3.02942786e-02f,
    -1.17964886e-01f,
    +2.50927843e-02f,
    +7.95170441e-02f,
    +8.98082331e-02f,
    +1.32060153e-02f,
    +3.83743877e-03f,
    +4.82449085e-02f,
    +8.19001906e-03f,
    -1.34553030e-01f,
    -4.07428388e-03f,
    +6.40527979e-02f,
    +5.79955056e-02f,
    +4.23129555e-03f,
    +6.43657669e-02f,
    -6.49949610e-02f,
    -4.82590757e-02f,
    +3.32170315e-02f,
    -8.68738219e-02f,
    +9.71487015e-02f,
    -4.74216230e-03f,
    -1.92528106e-02f,
    -1.12317480e-01f,
    +1.04259767e-01f,
    -4.81457822e-02f,
    -5.82323261e-02f,
    +9.96330827e-02f,
    -8.10289085e-02f,
    -8.72535780e-02f,
    +5.20253181e-02f,
    -1.03194363e-01f,
    -2.33515762e-02f,
    -4.81566265e-02f,
    +1.13590665e-01f,
    -1.40779495e-01f,
    +7.97677338e-02f,
    +2.25719642e-02f,
    +5.20667806e-02f,
    +1.32104680e-01f,
    -9.58403274e-02f,
    -8.35396945e-02f,
    -6.38258085e-02f,
    -2.00259481e-02f,
    +6.94045126e-02f,
    +5.34922518e-02f,
    -3.68212641e-04f,
    +1.31936241e-02f,
    -5.48580550e-02f,
    -1.36563435e-01f,
    -4.16923612e-02f,
    +6.24074638e-02f,
    +4.32373621e-02f,
    +5.15257604e-02f,
    +8.88756812e-02f,
    +1.00659234e-02f,
    -5.33138849e-02f,
    +7.99117759e-02f,
    -1.47057017e-02f,
    -3.67569923e-02f,
    -5.78904748e-02f,
    -2.05506422e-02f,
    +9.74887684e-02f,
    -3.67310122e-02f,
    +8.78256373e-03f,
    +3.73833664e-02f,
    -5.85560799e-02f,
    +1.01550249e-02f,
    +2.30403468e-02f,
    +9.04478505e-02f,
    -2.71936040e-03f,
    +5.67061938e-02f,
    +7.48939514e-02f,
    -5.83288372e-02f,
    -2.12360278e-01f,
    +1.98142659e-02f,
    -1.40320687e-02f,
    -6.61420915e-03f,
    +1.93689410e-02f,
    +6.28823265e-02f,
    -6.21868856e-02f,
    -2.40730345e-02f,
    +4.43442911e-02f,
    -2.43855286e-02f,
    +6.53022155e-02f,
    +5.12697622e-02f,
    -4.75442670e-02f,
    -1.93590894e-01f,
    +6.19377159e-02f,
    +8.93845335e-02f,
    -3.26438807e-02f,
    +9.14215073e-02f,
    -1.65287545e-03f,
    -2.09244248e-02f,
    +8.13876241e-02f,
    -1.14744686e-01f,
    -1.16005383e-01f,
    -8.40082951e-03f,
    +7.22046793e-02f,
    -3.76711525e-02f,
    -6.21832535e-02f,
    +3.61556932e-02f,
    +5.84277511e-02f,
    -1.30553609e-02f,
    -8.26427042e-02f,
    -3.41328308e-02f,
    -3.65294926e-02f,
    -1.04709581e-01f,
    +2.27463059e-03f,
    -1.00512125e-01f,
    +8.13277811e-02f,
    -1.12069137e-02f,
    -4.18433249e-02f,
    -2.95140836e-02f,
    -2.21888833e-02f,
    +3.87279876e-02f,
    +3.22904089e-05f,
    +9.09529533e-03f,
    -6.82254732e-02f,
    +4.57372591e-02f,
    +1.68790892e-02f,
    +6.40636683e-02f,
    -3.03672981e-02f,
    +2.74755992e-02f,
    -6.10122867e-02f,
    -2.40594558e-02f,
    -3.93933356e-02f,
    +7.77135119e-02f,
    -5.12095317e-02f,
    -1.15454651e-01f,
    -8.33108500e-02f,
    -4.10046764e-02f,
    +5.85416406e-02f,
    +5.06842583e-02f,
    +1.63085870e-02f,
    +9.46833864e-02f,
    -7.38977194e-02f,
    -9.02566612e-02f,
    +1.63975209e-02f,
    -6.45926222e-02f,
    -3.01139746e-02f,
    -5.86863235e-02f,
    -2.59831944e-03f,
    +2.59413179e-02f,
    +3.02757490e-02f,
    -2.72030588e-02f,
    -2.64267866e-02f,
    -4.03619967e-02f,
    -8.17232281e-02f,
    -9.72273424e-02f,
    +2.11068839e-02f,
    -2.01588511e-01f,
    -4.46525775e-03f,
    +1.03129419e-02f,
    -4.21423977e-03f,
    +5.96437231e-02f,
    -6.85626194e-02f,
    +6.25351956e-03f,
    +4.53240573e-02f,
    -7.75287822e-02f,
    -1.03491411e-01f,
    +1.34671405e-02f,
    +9.18509364e-02f,
    -1.05936117e-02f,
    -4.77176085e-02f,
    +9.07269269e-02f,
    -9.20807105e-03f,
    +8.79944339e-02f,
    -1.62093341e-01f,
    -1.10178426e-01f,
    -1.00034744e-01f,
    -7.77384341e-02f,
    +7.72302151e-02f,
    +6.49129152e-02f,
    -6.04990833e-02f,
    +5.98675921e-04f,
    -5.98651869e-03f,
    -7.57147670e-02f,
    -1.32418796e-02f,
    +6.69841236e-03f,
    +3.84003296e-02f,
    +7.66899809e-02f,
    -5.80358468e-02f,
    +1.05774507e-01f,
    -5.26107885e-02f,
    +8.20832178e-02f,
    -8.29532519e-02f,
    +3.80562968e-04f,
    +2.54756715e-02f,
    -7.16023371e-02f,
    -1.80415399e-02f,
    +5.85490502e-02f,
    -1.40425652e-01f,
    +7.12319883e-03f,
    -1.35864511e-01f,
    -7.43411109e-02f,
    +1.08900651e-01f,
    +7.97379687e-02f,
    -4.44298331e-03f,
    +4.15631905e-02f,
    -8.92852060e-03f,
    -1.18201315e-01f,
    -1.31696090e-01f,
    -1.95230413e-02f,
    +5.55667616e-02f,
    -1.71349905e-02f,
    +1.83746554e-02f,
    -1.95387453e-02f,
    -5.85512482e-02f,
    -5.18041626e-02f,
    +2.75306292e-02f,
    -5.97132705e-02f,
    +2.88241543e-03f,
    -3.03777382e-02f,
    -1.68979373e-02f,
    -1.73470840e-01f,
    -5.81120849e-02f,
    +9.44110192e-03f,
    -8.62672031e-02f,
    +1.49487883e-01f,
    +2.66816579e-02f,
    +5.94721772e-02f,
    +1.06505692e-01f,
    -5.30080236e-02f,
    -7.98144937e-02f,
    +2.83105075e-02f,
    +4.49337773e-02f,
    -1.06505901e-01f,
    -3.91608030e-02f,
    +6.76382631e-02f,
    -2.22236980e-02f,
    +5.77310733e-02f,
    -1.14538707e-01f,
    -1.63289025e-01f,
    -1.24700665e-01f,
    -9.59230438e-02f,
    -9.63928401e-02f,
    +4.54681041e-03f,
    -7.18168467e-02f,
    -2.97750439e-02f,
    -1.84054255e-01f,
    -1.24072403e-01f,
    +7.10409274e-03f,
    -1.14731207e-01f,
    -1.37851797e-02f,
    -3.95246688e-03f,
    -4.39609811e-02f,
    -7.75565580e-02f,
    -1.70687243e-01f,
    -8.21362287e-02f,
    -4.02934141e-02f,
    +3.95624526e-02f,
    +7.08455965e-02f,
    -1.60711303e-01f,
    -3.35184820e-02f,
    -1.88434854e-01f,
    -3.24893394e-03f,
    +1.20844074e-01f,
    -6.23510331e-02f,
    +1.74131636e-02f,
    -1.12270132e-01f,
    +2.53724307e-02f,
    -6.60755411e-02f,
    +9.20199528e-02f,
    +1.49373949e-01f,
    +4.96568484e-03f,
    -2.62845904e-01f,
    -8.08590651e-02f,
    -1.37632102e-01f,
    +5.74980415e-02f,
    +1.91856585e-02f,
    +9.87646580e-02f,
    +1.83220748e-02f,
    -1.15431346e-01f,
    +1.12210631e-01f,
    +1.23727750e-02f,
    +1.25058562e-01f,
    +1.46164298e-01f,
    +2.35712528e-02f,
    +3.09982244e-02f,
    +5.91888744e-03f,
    +3.21376370e-03f,
    +7.07675517e-03f,
    +2.83875838e-02f,
    +4.93440637e-03f,
    -1.67699292e-01f,
    +5.01693645e-03f,
    -7.02227503e-02f,
    -4.94787134e-02f,
    -1.34744212e-01f,
    -1.09366275e-01f,
    -9.16745067e-02f,
    +2.25120977e-01f,
    -6.90318421e-02f,
    -6.05877750e-02f,
    +2.02840823e-03f,
    -2.57503008e-03f,
    +2.56779902e-02f,
    +1.38416700e-02f,
    +1.39430866e-01f,
    +8.79554078e-02f,
    +2.74905954e-02f,
    +8.14448521e-02f,
    +5.51355490e-03f,
    -1.78667139e-02f,
    +1.41862975e-02f,
    -7.82680437e-02f,
    +9.05548185e-02f,
    +6.82973936e-02f,
    +1.19101979e-01f,
    +3.61527056e-02f,
    +8.98992047e-02f,
    -2.49062423e-02f,
    +4.14619781e-02f,
    +1.76370312e-02f,
    -9.73800570e-02f,
    +9.70461518e-02f,
    -9.25446376e-02f,
    +6.70409650e-02f,
    +5.83057739e-02f,
    -4.82363775e-02f,
    +2.47144420e-02f,
    -6.49411380e-02f,
    -8.47355574e-02f,
    +2.46997792e-02f,
    -6.70906678e-02f,
    +2.44780909e-02f,
    +6.18979894e-02f,
    +1.79874618e-02f,
    -6.07231185e-02f,
    -1.11669682e-01f,
    +1.50498385e-02f,
    +3.03361490e-02f,
    +4.06666473e-02f,
    -3.88610959e-02f,
    +7.18651861e-02f,
    -5.86481839e-02f,
    +8.65313224e-03f,
    +1.04568573e-02f,
    +3.20168249e-02f,
    +3.67652699e-02f,
    -1.07686464e-02f,
    +2.59165540e-02f,
    -1.81591913e-01f,
    +1.52292755e-02f,
    -1.23485189e-03f,
    +4.87128161e-02f,
    +1.35584518e-01f,
    -1.14418559e-01f,
    +2.12357584e-02f,
    +7.55591542e-02f,
    -4.61038314e-02f,
    +2.48040929e-02f,
    +3.44365500e-02f,
    +1.19248681e-01f,
    +6.94194287e-02f,
    +1.61358640e-02f,
    +9.36765447e-02f,
    +2.58654226e-02f,
    +2.71389354e-02f,
    -5.87401837e-02f,
    -8.87451768e-02f,
    -2.68366467e-02f,
    -1.62730552e-02f,
    +3.36441360e-02f,
    +9.65231750e-03f,
    +5.08064926e-02f,
    +5.96184023e-02f,
    -1.87249575e-02f,
    +3.68383154e-02f,
    +1.11507867e-02f,
    +7.93201197e-03f,
    +1.25917375e-01f,
    +2.04383805e-02f,
    -4.91926223e-02f,
    +2.96459123e-02f,
    -1.31326303e-01f,
    +6.30955100e-02f,
    +3.89191248e-02f,
    -1.31002039e-01f,
    +6.12347946e-02f,
    +1.15726469e-02f,
    +2.13479027e-02f,
    +1.00042485e-02f,
    -1.01449773e-01f,
    -1.35189161e-01f,
    -7.49942064e-02f,
    -2.93228012e-02f,
    -9.25350934e-02f,
    -3.56773101e-03f,
    -5.07469624e-02f,
    -1.59050655e-02f,
    -6.27718717e-02f,
    -1.16625167e-01f,
    +8.07501227e-02f,
    -2.99391639e-03f,
    +1.63469180e-01f,
    +2.93605886e-02f,
    -5.50303459e-02f,
    -5.54508753e-02f,
    +4.80636582e-02f,
    -4.05500904e-02f,
    -1.06330745e-01f,
    -2.70497352e-02f,
    -3.34983282e-02f,
    -9.78794843e-02f,
    -3.68042924e-02f,
    -2.19291776e-01f,
    +2.86308415e-02f,
    -1.01381540e-03f,
    -8.28949511e-02f,
    +7.45741725e-02f,
    -1.11163430e-01f,
    +9.92417783e-02f,
    +3.08976751e-02f,
    +2.64190286e-02f,
    +7.20030516e-02f,
    +3.01274918e-02f,
    -5.77022694e-03f,
    -1.00420788e-02f,
    -1.00128226e-01f,
    +7.90243745e-02f,
    +6.60055354e-02f,
    -1.28696421e-02f,
    -7.68193081e-02f,
    +5.34323119e-02f,
    +4.48675752e-02f,
    -7.07301572e-02f,
    -1.97575465e-02f,
    -1.32446475e-02f,
    +4.66544479e-02f,
    +4.90262136e-02f,
    +6.85768202e-02f,
    +4.29520085e-02f,
    -8.76867920e-02f,
    -2.35286318e-02f,
    -6.37051323e-03f,
    +1.33864820e-01f,
    +6.65781423e-02f,
    -8.60343352e-02f,
    -1.41419649e-01f,
    -1.44881885e-02f,
    +4.78949025e-02f,
    +2.77493782e-02f,
    -3.83590683e-02f,
    -1.62537500e-01f,
    -7.31410086e-02f,
    -1.09387562e-01f,
    -9.87266302e-02f,
    -9.08473954e-02f,
    -4.41834666e-02f,
    +1.46985250e-02f,
    -7.51282275e-02f,
    +5.00740856e-02f,
    -6.56809062e-02f,
    +3.51042375e-02f,
    -1.06094897e-01f,
    -2.84971409e-02f,
    -1.03978232e-01f,
    +9.04347524e-02f,
    +3.90470512e-02f,
    +4.40777466e-02f,
    +1.15348548e-02f,
    +2.21008342e-02f,
    -1.91146418e-01f,
    +1.41777769e-02f,
    -4.78414372e-02f,
    +3.39849852e-02f,
    +7.49587342e-02f,
    +6.39019534e-02f,
    -8.14907551e-02f,
    -1.60569653e-01f,
    +1.28624827e-01f,
    -3.67319630e-03f,
    -3.45268771e-02f,
    -1.13426119e-01f,
    -8.21578205e-02f,
    -6.05908856e-02f,
    +2.28382205e-03f,
    -3.41038220e-02f,
    -2.17213947e-02f,
    -6.57838061e-02f,
    -5.30937128e-02f,
    +7.78807178e-02f,
    -1.23918489e-01f,
    -8.06917250e-03f,
    -1.03985202e-02f,
    +1.43635347e-01f,
    +5.73152117e-02f,
    -7.62423798e-02f,
    -1.01222936e-02f,
    +2.14739423e-02f,
    -1.71114206e-01f,
    -3.36980559e-02f,
    -1.27098382e-01f,
    -1.54243201e-01f,
    -1.92526549e-01f,
    -1.19601138e-01f,
    -1.57359496e-01f,
    -1.03678428e-01f,
    -1.60869494e-01f,
    -5.11840172e-02f,
    -1.32543877e-01f,
    -1.05167896e-01f,
    -1.84920534e-01f,
    -6.17874116e-02f,
    -1.23301961e-01f,
    +6.27152547e-02f,
    -1.46648347e-01f,
    -2.20050663e-02f,
    +1.38173308e-02f,
    -1.01478010e-01f,
    -2.59653240e-01f,
    +1.87156305e-01f,
    -1.89245805e-01f,
    -1.36782780e-01f,
    -2.26477385e-01f,
    +1.07408904e-01f,
    -1.65522527e-02f,
    +1.31846452e-02f,
    +1.27342865e-01f,
    -1.96924180e-01f,
    +2.44281158e-01f,
    +1.38191273e-02f,
    +1.56666771e-01f,
    -2.21240874e-02f,
    -1.01032898e-01f,
    +5.17119914e-02f,
    -7.70880142e-04f,
    +1.01955868e-01f,
    +4.63641882e-02f,
    -1.78412825e-01f,
    +8.65174681e-02f,
    +3.37237827e-02f,
    +3.43412273e-02f,
    +1.48929417e-01f,
    -1.62136126e-02f,
    -1.21403180e-01f,
    -4.59689982e-02f,
    +2.12426797e-01f,
    -1.20178638e-02f,
    -2.54847705e-01f,
    -7.88594931e-02f,
    -2.03681290e-01f,
    -1.06948085e-01f,
    -6.54440075e-02f,
    -6.76925629e-02f,
    -1.20948263e-01f,
    -5.16204461e-02f,
    +1.70333400e-01f,
    -1.28040552e-01f,
    -2.19190009e-02f,
    +1.81747749e-01f,
    -9.14099365e-02f,
    +1.41140427e-02f,
    -4.85973991e-02f,
    +3.52382250e-02f,
    +2.08835285e-02f,
    -2.24947799e-02f,
    -2.34495774e-02f,
    -2.77439393e-02f,
    +6.84653968e-02f,
    -3.90678011e-02f,
    +1.04515828e-01f,
    -4.79135327e-02f,
    -4.33454588e-02f,
    +2.10370775e-02f,
    -9.80989859e-02f,
    -5.17290756e-02f,
    +4.70388830e-02f,
    +1.50918076e-03f,
    +8.47591553e-03f,
    +4.05707350e-03f,
    -3.11762355e-02f,
    -3.86140943e-02f,
    -3.20459791e-02f,
    -2.16722060e-02f,
    -4.02751788e-02f,
    -4.47295122e-02f,
    +4.84526567e-02f,
    -1.81976166e-02f,
    +4.70289774e-03f,
    +9.96413827e-02f,
    +4.97498475e-02f,
    -1.00064717e-01f,
    +1.67059142e-03f,
    -9.93337482e-03f,
    -1.59734339e-02f,
    -5.91709949e-02f,
    -2.30536517e-02f,
    -3.49005498e-02f,
    -7.12689012e-02f,
    -4.45993170e-02f,
    +2.30378062e-02f,
    -1.19875461e-01f,
    -9.25328583e-03f,
    +8.85258615e-02f,
    +9.38392505e-02f,
    -3.51771973e-02f,
    -1.45255476e-02f,
    +2.34897863e-02f,
    +3.48422304e-02f,
    +9.39308777e-02f,
    +5.17487712e-02f,
    -7.75807798e-02f,
    +6.34146780e-02f,
    +3.67159098e-02f,
    +4.87335473e-02f,
    +8.49079248e-03f,
    +8.00663382e-02f,
    -8.27593580e-02f,
    +4.45844159e-02f,
    -1.85188721e-03f,
    +4.05836012e-03f,
    +8.34036767e-02f,
    +1.21527284e-01f,
    +3.34014744e-03f,
    +1.03960864e-01f,
    -1.12744030e-02f,
    -7.24106878e-02f,
    +1.13912299e-01f,
    +1.13659725e-01f,
    +8.68461430e-02f,
    +1.97219104e-02f,
    +3.45441326e-02f,
    +2.50382535e-02f,
    -4.45856377e-02f,
    +6.84231669e-02f,
    +7.86608756e-02f,
    +3.82877253e-02f,
    +2.72494685e-02f,
    +5.20747043e-02f,
    -1.26604602e-01f,
    +8.26170594e-02f,
    +8.33821371e-02f,
    -7.08846003e-03f,
    -5.54595934e-03f,
    -1.13519929e-01f,
    -3.08305882e-02f,
    -6.65751547e-02f,
    -8.49816576e-02f,
    -1.03684239e-01f,
    -6.09067790e-02f,
    -1.21472394e-02f,
    -2.66412254e-02f,
    -3.43577601e-02f,
    -1.20589519e-02f,
    +7.60032386e-02f,
    -1.15525231e-01f,
    +1.86478440e-02f,
    -9.66003984e-02f,
    +8.62650946e-02f,
    +6.34415522e-02f,
    +4.61406261e-02f,
    -4.94235270e-02f,
    +1.18819494e-02f,
    -4.97882590e-02f,
    +3.03804148e-02f,
    +3.92422564e-02f,
    +8.38265195e-02f,
    -4.07286100e-02f,
    +1.37124527e-02f,
    -4.25597541e-02f,
    -7.69106448e-02f,
    -5.80178248e-03f,
    -3.66562046e-02f,
    +4.38186973e-02f,
    +1.51377618e-01f,
    -3.82725745e-02f,
    +8.78004655e-02f,
    +2.23408043e-02f,
    +5.71176177e-04f,
    -9.22970325e-02f,
    -3.73006724e-02f,
    +3.81388352e-03f,
    +4.94274385e-02f,
    -3.63479219e-02f,
    +1.07559808e-01f,
    +1.14529230e-01f,
    +4.83226888e-02f,
    -9.81630534e-02f,
    +3.00705917e-02f,
    +6.38218224e-03f,
    -5.08033037e-02f,
    +1.57518703e-02f,
    +1.35206088e-01f,
    +1.11436754e-01f,
    -7.11777434e-02f,
    +3.45135704e-02f,
    -7.75026605e-02f,
    +9.98303667e-02f,
    +6.66126981e-03f,
    +7.63908923e-02f,
    -1.38736755e-01f,
    -9.76646692e-02f,
    +3.45812403e-02f,
    +1.40949115e-01f,
    +5.21836914e-02f,
    +7.87872225e-02f,
    +1.44545157e-02f,
    +1.76104140e-02f,
    +2.17412449e-02f,
    +2.00722560e-01f,
    +3.20548862e-02f,
    -8.22663605e-02f,
    -1.03663012e-01f,
    -1.43713458e-02f,
    -6.85086176e-02f,
    -2.64662597e-02f,
    +2.79302597e-02f,
    -1.02470122e-01f,
    +9.41562727e-02f,
    -5.37098907e-02f,
    -1.06144719e-01f,
    -6.42331317e-02f,
    +6.81543257e-03f,
    +6.99419081e-02f,
    -1.38137162e-01f,
    +1.00378461e-01f,
    -4.20862529e-03f,
    -3.23146582e-02f,
    -1.09568484e-01f,
    +1.32829905e-01f,
    +1.42044947e-01f,
    -1.73382610e-01f,
    -2.01968029e-02f,
    -2.43511703e-02f,
    -1.79799482e-01f,
    +3.00816484e-02f,
    +1.20953042e-02f,
    -1.26728669e-01f,
    +1.26505852e-01f,
    +7.66159152e-04f,
    -3.12431026e-02f,
    +8.51652399e-02f,
    -1.70772120e-01f,
    -1.65776536e-01f,
    -8.62688497e-02f,
    +7.93649927e-02f,
    -1.44003704e-01f,
    -2.02612430e-02f,
    -2.96940841e-02f,
    -7.52232969e-02f,
    -7.72191659e-02f,
    -4.48099226e-02f,
    -6.82263151e-02f,
    -1.25202248e-02f,
    -1.24232888e-01f,
    -3.05021256e-02f,
    -2.21751034e-02f,
    +8.02969486e-02f,
    +5.17708696e-02f,
    +1.36576872e-02f,
    +2.27650581e-03f,
    -5.25962226e-02f,
    -4.11833040e-02f,
    +5.53696044e-02f,
    +1.17309690e-01f,
    +6.57770336e-02f,
    -2.31534000e-02f,
    -1.93114966e-01f,
    -2.65571778e-03f,
    +1.68742329e-01f,
    -8.66799057e-02f,
    -4.21058387e-02f,
    -1.51979581e-01f,
    +1.54068708e-01f,
    -5.89049645e-02f,
    -1.89795271e-01f,
    +1.58927113e-01f,
    -1.35360137e-01f,
    -1.50615154e-02f,
    -9.88535807e-02f,
    +1.65933147e-02f,
    -3.42692174e-02f,
    -2.00570598e-02f,
    +1.35136470e-01f,
    -1.66088179e-01f,
    +6.82954043e-02f,
    -8.55166465e-02f,
    +4.40649485e-04f,
    -3.15060541e-02f,
    -1.07937500e-01f,
    +4.96435128e-02f,
    -2.38968320e-02f,
    +6.34948611e-02f,
    +6.49316385e-02f,
    +1.02880299e-01f,
    -9.12845694e-03f,
    +9.55016986e-02f,
    +5.62889911e-02f,
    +6.68476894e-02f,
    +2.50140242e-02f,
    +1.57616939e-02f,
    -3.82446684e-02f,
    +1.16781168e-01f,
    +1.73371695e-02f,
    +4.62687351e-02f,
    +6.56634271e-02f,
    -6.58902824e-02f,
    -8.53530690e-02f,
    -2.17859432e-01f,
    +6.67963400e-02f,
    -2.12385461e-01f,
    +1.46784499e-01f,
    +4.20662127e-02f,
    +5.43620298e-03f,
    -2.32157819e-02f,
    +1.21189833e-01f,
    -5.76375164e-02f,
    -8.80687088e-02f,
    -2.82306205e-02f,
    -1.31970257e-01f,
    +4.52687368e-02f,
    -5.47008365e-02f,
    -2.20575556e-01f,
    -1.19120693e-02f,
    -5.52438162e-02f,
    +7.23859528e-03f,
    -1.21244945e-01f,
    -1.10950582e-01f,
    -1.39461264e-01f,
    -1.39952824e-01f,
    +2.70146187e-02f,
    -1.43804699e-01f,
    -7.02053756e-02f,
    -1.32715434e-01f,
    -1.36547619e-02f,
    +5.53673208e-02f,
    +8.31672270e-03f,
    +1.09082103e-01f,
    -5.83857261e-02f,
    -2.37637356e-01f,
    +1.05268784e-01f,
    -2.20108837e-01f,
    -5.37437871e-02f,
    -9.27600637e-02f,
    -6.19829632e-02f,
    -9.68997404e-02f,
    -9.90921184e-02f,
    +5.73402308e-02f,
    -1.90521985e-01f,
    +1.72555625e-01f,
    -1.46126971e-01f,
    +1.42991096e-01f,
    -1.65583298e-01f,
    -1.37222791e-02f,
    -1.12766325e-02f,
    +5.03953807e-02f,
    +5.67833446e-02f,
    +1.11098804e-01f,
    +2.79996842e-02f,
    -4.21532840e-02f,
    +1.32226720e-02f,
    +3.79920825e-02f,
    +5.74892983e-02f,
    -9.01277810e-02f,
    -1.13377169e-01f,
    -1.62449896e-01f,
    +7.82603249e-02f,
    +5.29864021e-02f,
    -1.74809307e-01f,
    -1.55913696e-01f,
    -1.59443542e-01f,
    -1.67362109e-01f,
    -2.50769347e-01f,
    -4.51359851e-03f,
    -1.72990844e-01f,
    +9.10051689e-02f,
    +1.06270835e-01f,
    -8.37162659e-02f,
    -8.48717615e-02f,
    +5.57852909e-02f,
    -2.00906202e-01f,
    -5.83938137e-02f,
    +1.78677030e-02f,
    +1.29532022e-02f,
    +1.72605030e-02f,
    +4.36679088e-03f,
    -2.91645043e-02f,
    -1.33615360e-02f,
    +6.15408495e-02f,
    -5.14800474e-03f,
    -2.95286961e-02f,
    -5.20909466e-02f,
    +5.31866178e-02f,
    +2.93556713e-02f,
    -2.72831470e-02f,
    +4.33558449e-02f,
    +7.97775853e-03f,
    +5.85196465e-02f,
    -5.80721870e-02f,
    -8.22402239e-02f,
    +2.17392202e-02f,
    +3.61657105e-02f,
    +8.38807747e-02f,
    +8.28529596e-02f,
    -8.68074410e-03f,
    +7.00162873e-02f,
    +1.24370575e-01f,
    -1.21415302e-01f,
    -5.32394089e-02f,
    +7.35182613e-02f,
    +8.82292613e-02f,
    +3.18551809e-02f,
    +1.47574991e-01f,
    -5.63454721e-03f,
    -8.87821987e-02f,
    +8.33060294e-02f,
    +6.40823841e-02f,
    +4.27216813e-02f,
    +6.96493760e-02f,
    -8.11412707e-02f,
    +6.12978749e-02f,
    -9.04552191e-02f,
    +5.46622369e-03f,
    -3.66696417e-02f,
    +4.61977236e-02f,
    -1.71783537e-01f,
    -1.41123429e-01f,
    +2.41759772e-04f,
    +1.08345918e-01f,
    +1.19974069e-01f,
    -3.88586591e-03f,
    -5.90203190e-03f,
    +4.25178297e-02f,
    -1.03822909e-01f,
    -1.28792850e-02f,
    +9.39276442e-02f,
    +9.06774849e-02f,
    -7.58197829e-02f,
    +2.23058779e-02f,
    +1.20258935e-01f,
    +8.44650343e-02f,
    -2.13912781e-02f,
    +1.66196987e-01f,
    -2.62223724e-02f,
    +5.54315709e-02f,
    +3.48590650e-02f,
    -5.72368652e-02f,
    +1.65441930e-02f,
    -5.27428463e-02f,
    -2.17386261e-02f,
    -7.68114850e-02f,
    -1.37015227e-02f,
    +9.29074585e-02f,
    -2.22770441e-02f,
    -1.53535337e-04f,
    +8.85241255e-02f,
    -2.25031916e-02f,
    +7.82760903e-02f,
    -5.34501635e-02f,
    -4.84166332e-02f,
    -1.79854706e-02f,
    -6.46234583e-03f,
    +4.78607789e-02f,
    -5.71853742e-02f,
    -9.28601772e-02f,
    -4.10515070e-02f,
    +1.08700460e-02f,
    -4.57969271e-02f,
    -1.77369475e-01f,
    +4.04459536e-02f,
    +9.94362775e-03f,
    -4.03627343e-02f,
    -4.29904014e-02f,
    -3.44700851e-02f,
    -1.85767021e-02f,
    -1.47963360e-01f,
    -1.96515489e-02f,
    +5.01634516e-02f,
    +7.55910203e-02f,
    +2.37145275e-02f,
    +7.48877004e-02f,
    -7.57317320e-02f,
    +4.45948131e-02f,
    -4.17307355e-02f,
    -3.98282409e-02f,
    +1.06323518e-01f,
    -6.18313765e-03f,
    +3.17093730e-03f,
    +5.02386643e-03f,
    +1.45917712e-02f,
    -1.78289562e-01f,
    -6.38176352e-02f,
    +3.43143009e-02f,
    +2.50011180e-02f,
    -4.76414077e-02f,
    -8.20039734e-02f,
    +4.73008603e-02f,
    +7.38042593e-02f,
    +5.81820495e-02f,
    -3.79881747e-02f,
    +8.05787146e-02f,
    -4.82140221e-02f,
    +6.18044101e-02f,
    -1.21166751e-01f,
    +7.93789551e-02f,
    +2.09373683e-02f,
    +9.31249410e-02f,
    +3.91959306e-03f,
    +2.50775013e-02f,
    -1.68762922e-01f,
    +3.18507180e-02f,
    -4.05545346e-02f,
    +5.45646809e-02f,
    -7.04985559e-02f,
    -2.32906472e-02f,
    +7.46875554e-02f,
    +3.91444052e-03f,
    -1.39663413e-01f,
    +2.64750235e-02f,
    -8.11620355e-02f,
    -1.11936480e-02f,
    -4.16874550e-02f,
    -7.78923929e-02f,
    -6.01096824e-02f,
    -4.67205904e-02f,
    -7.20822364e-02f,
    -7.04846308e-02f,
    -3.77009902e-03f,
    +3.58526930e-02f,
    +1.63707808e-02f,
    -1.36533333e-02f,
    +8.32056850e-02f,
    -2.44613625e-02f,
    +5.56993596e-02f,
    +2.01094840e-02f,
    -8.91263038e-02f,
    +1.10768862e-01f,
    +6.32305965e-02f,
    +8.97860155e-02f,
    -6.73159808e-02f,
    +5.73960580e-02f,
    +1.05160810e-01f,
    +2.73646433e-02f,
    +4.85003293e-02f,
    +1.08619638e-01f,
    -2.57998109e-02f,
    +4.73819859e-02f,
    -1.29686549e-01f,
    +6.06192723e-02f,
    -9.14966613e-02f,
    +2.17329599e-02f,
    -4.68024276e-02f,
    -6.87863380e-02f,
    +7.28386343e-02f,
    -4.56531905e-02f,
    -2.37932988e-02f,
    +7.76475891e-02f,
    +4.31650467e-02f,
    +4.28498536e-02f,
    -1.11579254e-01f,
    -5.70584945e-02f,
    -1.02212280e-01f,
    +8.57030451e-02f,
    +6.64116219e-02f,
    +1.34881377e-01f,
    -8.94084945e-02f,
    +1.54596744e-02f,
    +6.91026077e-02f,
    +1.17133014e-01f,
    -8.13994631e-02f,
    +1.21147566e-01f,
    -3.88932079e-02f,
    +6.40405118e-02f,
    -1.32313713e-01f,
    -7.53729716e-02f,
    +1.15280710e-01f,
    +1.49078220e-01f,
    +6.43056855e-02f,
    +1.50067070e-02f,
    +6.79119676e-03f,
    +9.69943330e-02f,
    +5.62714711e-02f,
    +6.15686588e-02f,
    +4.88996096e-02f,
    +5.83318807e-02f,
    +3.35461535e-02f,
    -2.67455932e-02f,
    +2.04655789e-02f,
    -9.19780433e-02f,
    +4.06293198e-02f,
    -8.28837827e-02f,
    -3.44015285e-02f,
    -8.07849541e-02f,
    -8.15349221e-02f,
    -2.75552496e-02f,
    +1.02790363e-01f,
    -9.88482162e-02f,
    -1.45753091e-02f,
    +2.80493703e-02f,
    -1.29608318e-01f,
    +1.11781480e-02f,
    +7.75291622e-02f,
    +1.23061407e-02f,
    -2.98853521e-03f,
    +5.81820719e-02f,
    +3.64674665e-02f,
    +1.28284805e-02f,
    -3.85980532e-02f,
    +5.70066459e-02f,
    -7.18039051e-02f,
    +7.65702641e-03f,
    -1.64515451e-01f,
    +2.80494057e-02f,
    -4.99412827e-02f,
    +1.05431899e-01f,
    +5.55417277e-02f,
    -2.78654862e-02f,
    -1.52782470e-01f,
    -1.36529773e-01f,
    +4.36345302e-02f,
    +1.10672049e-01f,
    +8.74345303e-02f,
    +2.83592250e-02f,
    -2.45194361e-02f,
    +1.13032656e-02f,
    -7.67354667e-02f,
    +1.71458721e-02f,
    -3.35135497e-02f,
    +1.00200556e-01f,
    -3.02805305e-02f,
    +2.14892663e-02f,
    +5.93995191e-02f,
    +7.61229768e-02f,
    +5.61628416e-02f,
    +4.12735641e-02f,
    +1.33258142e-02f,
    +5.30083515e-02f,
    -3.96904536e-02f,
    +4.27687503e-02f,
    +1.09929062e-01f,
    +3.71492542e-02f,
    -6.81385919e-02f,
    -5.97074442e-02f,
    -4.00006250e-02f,
    +3.63515243e-02f,
    -1.31505713e-01f,
    +6.02148473e-02f,
    +3.08365859e-02f,
    +5.72632775e-02f,
    +6.99031726e-02f,
    -1.13262057e-01f,
    -8.34850669e-02f,
    -5.45725152e-02f,
    +3.99102308e-02f,
    +4.42418084e-02f,
    -1.89012531e-02f,
    +3.65648419e-02f,
    -3.42486165e-02f,
    +9.06754509e-02f,
    +3.14378366e-02f,
    -1.33251339e-01f,
    +7.67884776e-02f,
    -8.48531723e-02f,
    -1.71512768e-01f,
    +7.82730356e-02f,
    -3.47690955e-02f,
    -1.83089748e-02f,
    -1.11911282e-01f,
    -1.55877881e-02f,
    +2.32107621e-02f,
    -5.55083454e-02f,
    +5.38467802e-02f,
    +1.23198079e-02f,
    -9.01264027e-02f,
    +3.26598920e-02f,
    -6.73557892e-02f,
    +9.26652178e-02f,
    -6.57429248e-02f,
    -5.33551052e-02f,
    +5.87085374e-02f,
    -9.42394286e-02f,
    -3.37564163e-02f,
    -1.66966379e-01f,
    -8.31273049e-02f,
    +1.70008391e-02f,
    -7.52374064e-03f,
    -4.21173386e-02f,
    -1.45254627e-01f,
    -3.86544690e-02f,
    -8.04085508e-02f,
    +1.12351134e-01f,
    +4.18830439e-02f,
    +6.40123859e-02f,
    -5.57955652e-02f,
    +9.41915438e-02f,
    -4.03586216e-02f,
    +8.10926184e-02f,
    -2.96549834e-02f,
    +2.80535072e-02f,
    -5.00580296e-02f,
    +1.55250169e-02f,
    -1.47905946e-01f,
    -4.77706548e-04f,
    -4.27043699e-02f,
    +2.14538574e-02f,
    -6.31080940e-02f,
    -5.77659011e-02f,
    +8.17368478e-02f,
    +5.86816370e-02f,
    -7.57861659e-02f,
    -5.53206876e-02f,
    +9.07668564e-03f,
    +8.96473527e-02f,
    -6.09672256e-02f,
    +9.54799168e-03f,
    -1.13780603e-01f,
    +8.82621668e-03f,
    -3.65338922e-02f,
    -1.00572921e-01f,
    +1.41887115e-02f,
    -6.36717826e-02f,
    +5.48091643e-02f,
    +3.18682939e-02f,
    +2.60395389e-02f,
    -1.44516498e-01f,
    -2.05764305e-02f,
    +5.47300465e-03f,
    -1.07711077e-01f,
    +1.32578369e-02f,
    -5.10071479e-02f,
    +1.03360891e-01f,
    -2.53808815e-02f,
    -4.51177917e-03f,
    -7.55860135e-02f,
    -2.19915845e-02f,
    +2.46263631e-02f,
    -2.38398220e-02f,
    -1.04666516e-01f,
    +5.56217693e-03f,
    -1.90723866e-01f,
    +3.63347754e-02f,
    +8.07227008e-03f,
    -2.50914656e-02f,
    +9.92749035e-02f,
    -2.36243717e-02f,
    -9.52556729e-02f,
    -5.82039766e-02f,
    +2.76691485e-02f,
    -4.41750661e-02f,
    -8.01154599e-03f,
    +9.10667405e-02f,
    -1.51934639e-01f,
    +2.78258305e-02f,
    +4.20600995e-02f,
    +1.34413429e-02f,
    +1.25766108e-02f,
    -3.61652039e-02f,
    +4.97985184e-02f,
    -5.37319109e-03f,
    +5.35014318e-03f,
    -2.41761189e-02f,
    -4.64562103e-02f,
    +1.07338794e-01f,
    -4.56999801e-02f,
    +1.46587053e-02f,
    -4.19235043e-02f,
    +8.73597339e-02f,
    -6.96903933e-03f,
    -1.48772635e-02f,
    -5.26090488e-02f,
    -8.66927281e-02f,
    -1.35296032e-01f,
    +8.34377669e-03f,
    -8.02072212e-02f,
    +4.27172345e-04f,
    -3.48073430e-02f,
    +6.21051267e-02f,
    -5.21119963e-03f,
    -3.52119207e-02f,
    +2.75700856e-02f,
    -5.94907030e-02f,
    -1.05079472e-01f,
    +8.99134576e-02f,
    -1.16280608e-01f,
    -2.46894993e-02f,
    -4.73297164e-02f,
    -2.91318186e-02f,
    -5.56358919e-02f,
    +6.23869523e-02f,
    -5.51827773e-02f,
    -8.57108906e-02f,
    -7.60393217e-02f,
    +5.63853644e-02f,
    +1.50707811e-02f,
    -1.40599133e-02f,
    -3.76723856e-02f,
    +3.80922705e-02f,
    +6.25394359e-02f,
    +1.74369495e-02f,
    +1.23880811e-01f,
    -3.92303877e-02f,
    -9.69270095e-02f,
    +8.97567272e-02f,
    -8.03572088e-02f,
    +3.82330269e-02f,
    +1.59375250e-01f,
    +4.74429913e-02f,
    +7.18462542e-02f,
    -1.03953689e-01f,
    +1.29398614e-01f,
    -1.10851735e-01f,
    -6.21902794e-02f,
    -1.37066543e-01f,
    -2.30894089e-02f,
    +1.68264091e-01f,
    -7.07658529e-02f,
    -1.30037603e-03f,
    -3.87227759e-02f,
    +4.71986309e-02f,
    -9.03696045e-02f,
    +1.12050585e-01f,
    -3.04076262e-02f,
    +8.68114084e-02f,
    -2.39234790e-02f,
    +9.29311514e-02f,
    -3.45137045e-02f,
    +9.84090474e-03f,
    -6.58099055e-02f,
    +1.20142726e-02f,
    -1.30133808e-01f,
    +5.06079569e-02f,
    +9.80177298e-02f,
    +1.39901385e-01f,
    -2.49814894e-03f,
    -4.99417409e-02f,
    -1.69289410e-02f,
    +1.99467838e-02f,
    +2.79870816e-02f,
    -9.71386489e-03f,
    -7.31343776e-02f,
    -2.10299212e-02f,
    -1.73499249e-02f,
    -7.66425282e-02f,
    +8.27519447e-02f,
    -3.88236046e-02f,
    -2.18724981e-02f,
    -3.81050929e-02f,
    -3.17094760e-04f,
    +3.96081358e-02f,
    +9.39162914e-03f,
    +7.07337931e-02f,
    +3.80520485e-02f,
    -1.40500128e-01f,
    +3.03195678e-02f,
    +6.44421056e-02f,
    -1.89329043e-01f,
    +3.45492363e-02f,
    +9.52702835e-02f,
    +5.36730066e-02f,
    -1.16377495e-01f,
    +1.43235415e-01f,
    -1.38403149e-02f,
    -2.37358809e-02f,
    -2.67121270e-02f,
    +9.47832167e-02f,
    +5.64465486e-03f,
    -1.22813359e-02f,
    -6.82432577e-02f,
    +2.33195517e-02f,
    -1.23093598e-01f,
    +9.73321870e-02f,
    -5.89945307e-03f,
    +3.21258977e-02f,
    -7.90100023e-02f,
    -1.23648882e-01f,
    +1.42479828e-02f,
    +4.69869450e-02f,
    +1.06185608e-01f,
    +4.88947071e-02f,
    -6.33594766e-02f,
    -4.80147414e-02f,
    -2.63333728e-04f,
    +1.18022412e-01f,
    +5.02199978e-02f,
    -2.97729876e-02f,
    -7.02785477e-02f,
    +1.64373517e-02f,
    +7.24698752e-02f,
    -1.75564140e-02f,
    -9.04115215e-02f,
    +2.67578531e-02f,
    -1.91805698e-02f,
    +1.02079228e-01f,
    -9.46918204e-02f,
    -2.04932149e-02f,
    -9.69573949e-03f,
    -3.53693701e-02f,
    -1.21849976e-01f,
    -1.42950013e-01f,
    -4.64935824e-02f,
    -1.31380513e-01f,
    +9.49274749e-02f,
    -4.04166207e-02f,
    -1.01217600e-02f,
    -1.06184691e-01f,
    +2.98948921e-02f,
    +3.52735110e-02f,
    +8.04100409e-02f,
    +1.67554449e-02f,
    -7.36211538e-02f,
    -3.08623537e-02f,
    +1.39273718e-01f,
    -2.19123531e-02f,
    +7.09202215e-02f,
    -1.48771062e-01f,
    -1.31724268e-01f,
    +4.23435643e-02f,
    -5.34937344e-02f,
    +4.32741754e-02f,
    +2.85249297e-02f,
    -1.48576990e-01f,
    -2.67276913e-02f,
    -4.19972576e-02f,
    -7.12958649e-02f,
    -1.42785639e-01f,
    +4.52950895e-02f,
    -8.58987402e-03f,
    +1.40863001e-01f,
    -2.78657265e-02f,
    +4.05967794e-02f,
    -5.14077842e-02f,
    -7.63591528e-02f,
    -1.61252096e-02f,
    +8.27647094e-03f,
    +8.07482451e-02f,
    -1.49010003e-01f,
    +3.32417490e-04f,
    +8.37461799e-02f,
    +1.25784511e-02f,
    -1.00753725e-01f,
    -8.06155801e-02f,
    -4.73592244e-02f,
    +1.45623118e-01f,
    -3.30857211e-03f,
    -8.94795656e-02f,
    +4.00437415e-02f,
    -1.14986524e-01f,
    -7.22069740e-02f,
    -1.88757628e-01f,
    -7.67511204e-02f,
    -5.27351350e-02f,
    +6.00490086e-02f,
    -5.75291626e-02f,
    -1.92637771e-01f,
    -7.70349205e-02f,
    +4.30563241e-02f,
    -1.04231156e-01f,
    +2.03572540e-03f,
    -9.86781642e-02f,
    -9.39857513e-02f,
    -6.73720241e-03f,
    +1.92297921e-02f,
    -1.33294925e-01f,
    -1.64674930e-02f,
    +2.67682318e-02f,
    -5.55384494e-02f,
    -6.36323020e-02f,
    -8.99948999e-02f,
    +1.94315854e-02f,
    -2.74983756e-02f,
    -6.07546493e-02f,
    +4.80480678e-02f,
    -1.19947381e-01f,
    +4.14697453e-02f,
    +9.19540077e-02f,
    -1.41464978e-01f,
    +3.76051925e-02f,
    +4.17499542e-02f,
    +9.20136794e-02f,
    +6.98303655e-02f,
    +1.29695147e-01f,
    -1.00704707e-01f,
    -1.51019469e-02f,
    -1.36765257e-01f,
    +6.27765730e-02f,
    +3.88428718e-02f,
    +1.26731871e-02f,
    +2.74756271e-02f,
    -2.50690375e-02f,
    +1.59085631e-01f,
    +7.71746831e-03f,
    +4.03991975e-02f,
    -1.58446133e-02f,
    -1.47710979e-01f,
    -2.53980495e-02f,
    -7.43035302e-02f,
    -2.03519668e-02f,
    +1.46398097e-01f,
    -1.26513243e-01f,
    -4.57373671e-02f,
    -8.16952363e-02f,
    +2.03198963e-03f,
    +2.97836438e-02f,
    -4.10173535e-02f,
    -6.72237873e-02f,
    -1.35878205e-01f,
    +8.95750970e-02f,
    -4.38624918e-02f,
    -6.16324274e-03f,
    -9.01627168e-02f,
    +4.87694591e-02f,
    -6.08953610e-02f,
    +8.71319696e-02f,
    -8.69049132e-02f,
    +1.59850046e-01f,
    +8.33501443e-02f,
    +6.56324849e-02f,
    -5.05071171e-02f,
    -6.34128749e-02f,
    -1.66774597e-02f,
    -5.12628593e-02f,
    -1.03818312e-01f,
    -4.84946221e-02f,
    -1.02112759e-02f,
    -9.59348008e-02f,
    -1.71551742e-02f,
    +7.91140199e-02f,
    -6.76667616e-02f,
    -3.97803113e-02f,
    +6.15901500e-03f,
    -2.69384496e-02f,
    -1.36957988e-01f,
    +1.60122126e-01f,
    -2.98403110e-02f,
    -6.61514476e-02f,
    -1.69293787e-02f,
    +6.78771921e-03f,
    -6.15602657e-02f,
    -1.58113092e-01f,
    -1.59236819e-01f,
    -1.73552454e-01f,
    -1.21531412e-01f,
    -1.59837931e-01f,
    -9.40325856e-02f,
    +9.05488059e-02f,
    -1.25737190e-01f,
    +4.06427570e-02f,
    +7.35629797e-02f,
    -4.14691456e-02f,
    -1.43636718e-01f,
    -2.67416742e-02f,
    +2.00360566e-02f,
    +2.26309877e-02f,
    +5.52433096e-02f,
    -1.42592311e-01f,
    -1.41275078e-02f,
    +8.44608024e-02f,
    -7.80699551e-02f,
    +7.14901686e-02f,
    -6.40009195e-02f,
    -4.24838327e-02f,
    -4.45420295e-02f,
    -1.82398766e-01f,
    +2.11352840e-01f,
    +4.69708629e-02f,
    -1.27755046e-01f,
    +1.06264055e-01f,
    +1.24109678e-01f,
    +1.19141467e-01f,
    -1.27350669e-02f,
    -8.99339542e-02f,
    +7.40100667e-02f,
    -1.52853981e-01f,
    +4.75671403e-02f,
    -1.43441752e-01f,
    -8.84336419e-03f,
    -1.48200497e-01f,
    -7.74218887e-02f,
    -1.39807984e-01f,
    +1.66523308e-02f,
    -2.48959903e-02f,
    +3.70870493e-02f,
    +6.29249364e-02f,
    +2.12679375e-02f,
    +7.68818334e-02f,
    -8.91481992e-03f,
    +2.24729944e-02f,
    +1.64495736e-01f,
    +1.52975693e-01f,
    +3.18149813e-02f,
    +8.67344290e-02f,
    +6.29356280e-02f,
    -1.93293709e-02f,
    -2.95039676e-02f,
    -4.62119747e-03f,
    +1.62472799e-01f,
    -2.92007197e-02f,
    -4.12655994e-02f,
    +2.55948305e-02f,
    -1.28100887e-01f,
    -3.50287110e-02f,
    +1.12564005e-01f,
    -1.00358903e-01f,
    +1.78886294e-01f,
    +1.37398494e-02f,
    +2.09978104e-01f,
    +4.50628772e-02f,
    -4.93028648e-02f,
    -1.15964763e-01f,
    -3.46141378e-03f,
    +3.60418186e-02f,
    -7.48387203e-02f,
    +2.77085248e-02f,
    +3.94756459e-02f,
    -3.15229595e-02f,
    -3.19123119e-02f,
    -1.63166508e-01f,
    +3.09100915e-02f,
    +1.01001225e-01f,
    -3.67299700e-03f,
    +3.23745757e-02f,
    +2.58387048e-02f,
    -2.44638398e-02f,
    -8.07944909e-02f,
    -8.53564516e-02f,
    +2.75773052e-02f,
    +9.46509466e-02f,
    -5.67871369e-02f,
    +1.31884823e-02f,
    -1.04017571e-01f,
    -2.16908455e-01f,
    +4.32947055e-02f,
    -9.56340358e-02f,
    -1.10083580e-01f,
    +1.78101987e-01f,
    -3.58944610e-02f,
    +7.97720179e-02f,
    +9.19757783e-02f,
    -1.78736402e-03f,
    -1.19304910e-01f,
    -7.21316263e-02f,
    +8.48294944e-02f,
    -3.55455466e-02f,
    +1.65193919e-02f,
    -4.91577275e-02f,
    +8.91785100e-02f,
    -2.59263627e-02f,
    -1.79945737e-01f,
    -2.73212511e-02f,
    -1.11434691e-01f,
    -7.54102841e-02f,
    +1.34648889e-01f,
    +1.56056613e-01f,
    +1.24207698e-01f,
    +2.83313878e-02f,
    +2.11064532e-01f,
    -8.48951414e-02f,
    -8.54926556e-02f,
    -5.32941669e-02f,
    +2.09465593e-01f,
    -6.72326088e-02f,
    -6.51975861e-03f,
    +1.49651570e-02f,
    -4.80939224e-02f,
    +7.64880404e-02f,
    +9.75782238e-03f,
    -1.42556906e-01f,
    +8.43561068e-02f,
    +3.43445688e-02f,
    +7.32141584e-02f,
    -2.45385766e-02f,
    +5.86704956e-03f,
    -1.67148978e-01f,
    -1.10014156e-02f,
    +3.09055317e-02f,
    +1.34201407e-01f,
    -1.17156655e-01f,
    -5.95941804e-02f,
    +5.86556755e-02f,
    -9.84047875e-02f,
    -1.13588780e-01f,
    -2.48694792e-02f,
    -3.40436250e-02f,
    +3.06743309e-02f,
    -4.57101353e-02f,
    -4.32633087e-02f,
    -1.46999329e-01f,
    -8.43873713e-03f,
    -2.29684152e-02f,
    +8.33113585e-03f,
    +1.63507596e-01f,
    -1.23051852e-01f,
    -9.77951884e-02f,
    -1.61407876e-03f,
    -7.96949565e-02f,
    -1.12490214e-01f,
    -3.00707836e-02f,
    -1.40650034e-01f,
    +1.93331167e-01f,
    -1.21510876e-02f,
    +5.47700338e-02f,
    +9.54669528e-03f,
    +1.67867914e-02f,
    -1.17391758e-01f,
    -2.65997909e-02f,
    +1.53553128e-01f,
    +3.08614001e-02f,
    -1.01611592e-01f,
    -5.81405759e-02f,
    +7.36108720e-02f,
    -7.16978312e-02f,
    -1.02783933e-01f,
    +6.44824952e-02f,
    -4.51291837e-02f,
    -1.11477748e-01f,
    -2.74902657e-02f,
    +4.15568836e-02f,
    -5.34583777e-02f,
    +1.92451887e-02f,
    +3.72868450e-03f,
    +3.64008397e-02f,
    -2.33219862e-02f,
    +2.23696916e-04f,
    +1.07363135e-01f,
    +1.14724278e-01f,
    +4.57888655e-02f,
    +9.10718180e-03f,
    -5.63115962e-02f,
    +4.87295017e-02f,
    +1.88054163e-02f,
    +3.82486172e-02f,
    -5.75373992e-02f,
    +3.15666646e-02f,
    -1.05857164e-01f,
    +4.96977009e-02f,
    +5.17447479e-02f,
    -1.38367206e-01f,
    -6.72506914e-02f,
    -8.53074044e-02f,
    -1.30247146e-01f,
    +8.69849324e-03f,
    -2.89987158e-02f,
    +1.98587053e-03f,
    -1.30044699e-01f,
    +8.40993971e-02f,
    +5.73287643e-02f,
    -1.76613256e-02f,
    +5.95344827e-02f,
    +8.29753131e-02f,
    -7.84813762e-02f,
    -3.76694719e-03f,
    +3.53272352e-03f,
    -7.74953142e-02f,
    -4.97172065e-02f,
    +3.56805995e-02f,
    +2.87337229e-02f,
    -1.00975089e-01f,
    -9.08575282e-02f,
    -1.04396157e-01f,
    -5.53188426e-03f,
    -3.06532830e-02f,
    +8.35051313e-02f,
    -1.88214928e-02f,
    -3.74032408e-02f,
    -4.80322205e-02f,
    +9.41749066e-02f,
    +8.58391523e-02f,
    +4.68057692e-02f,
    +8.04644227e-02f,
    +4.19529201e-03f,
    +1.29714847e-01f,
    -1.08891129e-01f,
    -1.92476548e-02f,
    +2.12461092e-02f,
    +6.41889274e-02f,
    -1.16528518e-01f,
    +6.52343631e-02f,
    -8.45577288e-03f,
    +2.27080733e-02f,
    -4.69669402e-02f,
    -2.24739569e-03f,
    +6.36604503e-02f,
    +5.65724298e-02f,
    -3.67952809e-02f,
    +4.97887619e-02f,
    -4.08276077e-03f,
    -8.93069953e-02f,
    +1.04750812e-01f,
    +1.47399724e-01f,
    +6.72862232e-02f,
    +6.75797760e-02f,
    -2.26360306e-01f,
    +9.09844041e-03f,
    +6.82566166e-02f,
    -8.22170749e-02f,
    -7.31951520e-02f,
    -1.18486844e-01f,
    +8.31073988e-03f,
    -7.41838440e-02f,
    -9.64281242e-03f,
    -2.78749038e-02f,
    -1.31940037e-01f,
    -6.09580763e-02f,
    +7.04553947e-02f,
    +2.20205355e-02f,
    +9.98260081e-03f,
    +3.87858041e-02f,
    -7.00914562e-02f,
    -1.18143111e-01f,
    -5.84194548e-02f,
    +3.35216485e-02f,
    +5.95450066e-02f,
    +1.38326928e-01f,
    -1.06978239e-02f,
    -3.69843803e-02f,
    -1.09804809e-01f,
    -1.20694026e-01f,
    +3.59754218e-03f,
    -3.79106328e-02f,
    +6.35396391e-02f,
    -9.40475240e-02f,
    -3.58374864e-02f,
    -1.24212809e-01f,
    +9.30962786e-02f,
    +2.60594487e-02f,
    +2.88159065e-02f,
    +4.59148660e-02f,
    -1.48934528e-01f,
    -1.89369619e-02f,
    -1.52801890e-02f,
    -8.25821087e-02f,
    -6.44074753e-02f,
    +3.36864516e-02f,
    +9.93367881e-02f,
    -3.01692300e-02f,
    -3.93530689e-02f,
    -7.30560673e-03f,
    -2.74998974e-02f,
    +1.12427242e-01f,
    +8.42110440e-03f,
    +1.37385726e-02f,
    -6.13273755e-02f,
    -7.55653977e-02f,
    -1.36799827e-01f,
    -9.63157266e-02f,
    -5.27239405e-02f,
    +3.28087024e-02f,
    +4.41855788e-02f,
    +1.87478717e-02f,
    +1.13983013e-01f,
    -4.15129028e-02f,
    -1.36132454e-02f,
    -1.30384907e-01f,
    -3.02631110e-02f,
    -7.96905458e-02f,
    +5.18157668e-02f,
    -6.27344251e-02f,
    +3.14743184e-02f,
    +1.01253614e-01f,
    -8.38390067e-02f,
    +2.97546480e-02f,
    -9.07488540e-02f,
    +1.44900233e-01f,
    +8.75174254e-02f,
    -1.78347509e-02f,
    +5.31361578e-03f,
    -4.86589186e-02f,
    +3.07727288e-02f,
    -8.92549902e-02f,
    -1.17893420e-01f,
    +6.32829741e-02f,
    +6.20510522e-03f,
    +9.31970552e-02f,
    +6.71069557e-03f,
    -7.56165832e-02f,
    -7.38571212e-02f,
    +3.97265563e-03f,
    +4.67777885e-02f,
    -1.97906494e-02f,
    -5.78949973e-02f,
    -9.49391574e-02f,
    -2.02995211e-01f,
    +1.79294888e-02f,
    -1.32782102e-01f,
    -1.13660738e-01f,
    -1.13385729e-01f,
    -2.38827383e-03f,
    -6.27198303e-03f,
    +1.51735712e-02f,
    -6.27320772e-03f,
    -3.89468111e-02f,
    -6.12400286e-02f,
    +4.97666001e-02f,
    -3.30737443e-03f,
    +2.59748958e-02f,
    +4.64315228e-02f,
    -2.61099599e-02f,
    -1.29055977e-01f,
    +8.99155214e-02f,
    -1.32756475e-02f,
    +6.30151853e-02f,
    -1.49616137e-01f,
    +1.20200284e-01f,
    +3.99398766e-02f,
    +1.32962987e-01f,
    +7.48123080e-02f,
    -9.78534445e-02f,
    +1.13690950e-01f,
    +9.25249681e-02f,
    -6.85371011e-02f,
    +1.13158906e-02f,
    +1.66528262e-02f,
    -5.74786477e-02f,
    -8.91536996e-02f,
    +9.22349021e-02f,
    -2.81248447e-02f,
    +5.59916496e-02f,
    +8.32519401e-03f,
    -4.14829142e-02f,
    -2.74467636e-02f,
    -1.05417492e-02f,
    +2.06468478e-02f,
    -1.08219631e-01f,
    +1.31390631e-01f,
    -8.40488374e-02f,
    +8.85346159e-02f,
    +8.12776387e-02f,
    -2.60616448e-02f,
    -1.29067749e-01f,
    +3.87317874e-02f,
    +1.02799153e-02f,
    -1.25360593e-01f,
    +1.17312614e-02f,
    +2.34146751e-02f,
    +2.19494663e-02f,
    +2.26256382e-02f,
    +2.70448439e-02f,
    +3.08010615e-02f,
    -5.66492341e-02f,
    -7.82445632e-03f,
    +5.99155538e-02f,
    -1.49375260e-01f,
    +5.25633618e-03f,
    +9.14729200e-03f,
    +1.75203255e-04f,
    -1.16424903e-01f,
    +8.18501413e-02f,
    -8.37704167e-03f,
    -9.51050967e-02f,
    -2.62494329e-02f,
    -1.11507758e-01f,
    +7.38596637e-03f,
    -3.83258946e-02f,
    +5.20902276e-02f,
    +1.51679799e-01f,
    -9.38708931e-02f,
    +9.46320593e-03f,
    +7.18182027e-02f,
    +8.16094205e-02f,
    +4.22389917e-02f,
    +8.44781399e-02f,
    +5.54160252e-02f,
    +2.81126220e-02f,
    -9.58149806e-02f,
    +8.32061544e-02f,
    +2.89080814e-02f,
    +1.15509383e-01f,
    -2.64617223e-02f,
    +5.03975525e-03f,
    -1.16858957e-03f,
    -6.85447082e-02f,
    +2.61527169e-02f,
    +1.27162829e-01f,
    -4.17372622e-02f,
    +1.73724573e-02f,
    +3.96218672e-02f,
    +1.90233681e-02f,
    -3.24011291e-03f,
    +7.93066062e-03f,
    +8.67687017e-02f,
    +5.67826964e-02f,
    +6.72595575e-02f,
    -1.27258271e-01f,
    -7.46920705e-02f,
    -4.63647619e-02f,
    +8.07466079e-03f,
    -4.78166901e-03f,
    -5.57014793e-02f,
    -5.12708537e-02f,
    +1.44542148e-03f,
    -1.55038834e-02f,
    +4.80444282e-02f,
    +2.83914767e-02f,
    +8.11650008e-02f,
    -5.39184138e-02f,
    -1.75538048e-01f,
    +2.88189556e-02f,
    +1.12165973e-01f,
    +6.27094880e-02f,
    +5.35705686e-03f,
    +2.95979455e-02f,
    +1.06249467e-01f,
    +4.98343818e-02f,
    +2.88389102e-02f,
    +4.74887602e-02f,
    -3.17189395e-02f,
    -2.50455253e-02f,
    +2.75413524e-02f,
    +6.53249249e-02f,
    -9.38934386e-02f,
    +4.24527861e-02f,
    +1.46699781e-02f,
    -9.58555043e-02f,
    +3.37345526e-02f,
    -8.46585184e-02f,
    -1.07975982e-01f,
    +6.72581606e-04f,
    -1.59857259e-03f,
    +1.22997098e-01f,
    -5.68251237e-02f,
    -5.22023588e-02f,
    -9.46852565e-02f,
    +1.06812820e-01f,
    -3.96977738e-02f,
    -7.72488117e-03f,
    -9.31549445e-02f,
    +1.57581672e-01f,
    -7.73236901e-02f,
    +8.30646008e-02f,
    +4.33032773e-02f,
    +7.63994176e-03f,
    -6.21096604e-02f,
    +3.03098597e-02f,
    -1.31187662e-01f,
    -1.47725970e-01f,
    +1.08738236e-01f,
    +1.10579450e-02f,
    +2.12869849e-02f,
    +1.24263614e-02f,
    -1.71756893e-02f,
    -8.16148669e-02f,
    -3.56302634e-02f,
    -5.62137328e-02f,
    +5.68386354e-02f,
    +4.02096994e-02f,
    +3.59008946e-02f,
    +3.74110080e-02f,
    -5.80422617e-02f,
    +4.25535291e-02f,
    +2.51691788e-03f,
    -5.99074289e-02f,
    -2.56949849e-02f,
    -1.57710817e-02f,
    +3.03909276e-02f,
    -5.63888364e-02f,
    +3.56864743e-02f,
    -1.27463847e-01f,
    -1.20309312e-02f,
    +3.14656645e-02f,
    +2.02225912e-02f,
    -3.61704221e-03f,
    +8.91300216e-02f,
    +1.12928495e-01f,
    -1.40519366e-01f,
    -3.99797782e-02f,
    -7.61484578e-02f,
    -2.51790453e-02f,
    +6.07677735e-03f,
    +5.92752919e-02f,
    -7.73846358e-02f,
    +4.29408997e-02f,
    -7.13599697e-02f,
    -1.06721856e-01f,
    -3.97262648e-02f,
    +4.57344577e-02f,
    -2.61899941e-02f,
    -5.33631220e-02f,
    -1.42583787e-01f,
    -2.08702430e-01f,
    +1.25344452e-02f,
    +3.62085328e-02f,
    -3.65341082e-02f,
    -5.08165769e-02f,
    -5.31439260e-02f,
    +9.11041796e-02f,
    +1.88565962e-02f,
    +2.80196462e-02f,
    -1.57873556e-02f,
    +1.10051557e-02f,
    +2.96354704e-02f,
    +8.85927528e-02f,
    +3.68357226e-02f,
    +6.20533004e-02f,
    +1.08099997e-01f,
    +7.04925954e-02f,
    -9.37420502e-03f,
    +6.75665885e-02f,
    -1.82954781e-02f,
    -5.36113754e-02f,
